我	0.0318601354957,-0.0625791028142,0.0109609710053,-0.0129611594602,-0.0510358028114,-0.0355221405625,0.00033109402284,-0.0700615718961,-0.0464156828821,0.0922078415751,-0.039694070816,0.162750020623,-0.095967926085,-0.0693443641067,-0.0792588144541,0.0332965329289,0.0358426049352,-0.0417574048042,-0.000243566682911,-0.0369457863271,-0.089743077755,0.0189382154495,0.0133592505008,-0.118478387594,0.0431608222425,-0.0570455379784,0.00733608705923,0.0994843915105,-5.51639495825e-05,-0.00523377023637,0.0317746847868,-0.00851274747401,-0.0129682477564,-0.0102228792384,0.0110235763714,-0.0202117208391,0.0439640954137,-0.0828436240554,0.140307456255,-0.0400001630187,-0.00239666551352,-0.0262607391924,-0.0949317440391,-0.0373559258878,0.0411325022578,-0.0179467350245,-0.0464839041233,-0.000890103168786,0.00324576208368,-0.075213432312,0.0486223660409,-0.00251614814624,0.00574060063809,0.00664758915082,0.0135350897908,0.0199841074646,-0.0641115680337,0.0933545902371,-0.00468650087714,-0.0618762969971,-0.0597134903073,0.0680663064122,-0.0537687093019,-0.0640048980713,0.0448762252927,0.089851565659,-0.0245070047677,-0.0271999724209,-0.00846689753234,0.106901094317,0.0557950474322,-0.0487973056734,0.0505312569439,-0.0887563601136,-0.0832261294127,0.0333923138678,-0.054920502007,-0.0149744069204,-0.0534812025726,-0.049259904772,0.0792289376259,0.0903873443604,0.0148016810417,0.0218141395599,0.0612680241466,-0.0321736261249,0.0156742595136,0.0379008874297,0.087493032217,0.0601079501212,-0.0366627089679,0.0812401175499,-0.00760679831728,0.0420979782939,0.0462795682251,0.0257082115859,0.0228031594306,0.000702354998793,0.0240262672305,-0.0459290593863,-0.0309165939689,0.0296943094581,-0.0415546894073,-0.130244374275,0.0410508029163,0.0539533011615,-0.0923296511173,0.047408811748,0.0476151742041,0.0546631515026,0.0823891311884,0.0414973534644,-0.00271461182274,-0.0632028207183,0.012795898132,0.066440269351,-0.0351255871356,0.0811581611633,-0.00148542516399,0.0113653885201,0.0731589570642,-0.0184165257961,-0.0239694025367,-0.0476310476661,0.0173521414399,-0.0546952039003,-0.0624060928822,-0.0294938739389,0.152482777834,0.0534103289247,-0.0010115315672,0.0187085177749,-0.0782021954656,0.0842630639672,-0.100410297513,0.0243879277259,-0.00109344557859,0.0661801099777,-0.0154894012958,0.0212232656777,-0.0837609246373,0.141678333282,0.049811899662,-0.0964943394065,0.0380908250809,-0.00296971853822,0.0707413628697,0.0737101659179,-0.135193362832,-0.0785564631224,-0.000268151314231,0.00189033243805,-0.0229694191366,0.0444244928658,0.0280224084854,-0.0180750284344,0.0357644110918,-0.0406264327466,-0.0175952538848,-0.0943741798401,0.0981715247035,-0.112049534917,0.0666119381785,0.0696698203683,0.00853981915861,-0.0268829166889,-0.0767554491758,-0.0259214583784,0.0447633005679,-0.0850846171379,0.0508087389171,0.0562555193901,0.0353268906474,-0.0455490425229,-0.0993019267917,0.101958937943,-0.0706970766187,-0.0543446056545,-0.0373198352754,-0.0680659487844,-0.0533059723675,-0.124641768634,0.00720483995974,-0.0839391127229,-0.0282807759941,0.00548409996554,-0.00246269884519,-0.0163202229887,0.0230293124914,-0.0174408704042,0.0334703288972,0.0260618571192,0.0543942637742,-0.0642839074135,-0.0416546650231,0.0437871403992,0.0288791172206,-0.00408911379054,-0.0165010560304,0.0363564677536,0.012027958408,-0.0737987533212,0.00395342661068,-0.0190867464989,0.0548028089106,-0.04871622473,0.0473475940526,0.003347231308,-0.0277305208147,0.00840665958822,-0.0518563836813,0.0181785169989,-0.0962153747678,-0.0455176979303,0.069994032383,0.0536326877773,0.0969700589776,0.0723528712988,0.046725217253,0.0765864178538,0.0414058566093,0.0261073764414,0.0119032487273,-0.00193223671522,-0.0650056302547,-0.014867211692,0.00275664473884,-0.0229575727135,0.0149140702561,0.0442652329803,-0.0537416525185,-0.0101992823184,-0.0950735807419,0.064665786922,0.0784195885062,-0.00282834004611,0.111741729081,-0.000272075500106,-0.0501263998449,-0.0326010398567,0.0340978428721,0.0432722046971,-0.117482066154,0.0462078899145,0.0153285395354,0.0575946867466,-0.00732505600899,-0.00283903186209,-0.0438364222646,-0.0480777099729,0.0141226835549,-0.0540542416275,0.114355251193,-0.0233194120228,-0.0808224901557,-0.0277779269964,0.110943377018,0.0146497786045,-0.0187327265739,-0.0323302745819,0.0668031573296,-0.0442168228328,-0.0565980039537,-0.070846773684,-0.0522909574211,0.0741327553988,0.0234809294343,-0.0272572785616,0.0370185039937,0.0264489613473,-0.105243772268,0.0309535134584,0.0230198539793,0.0861975550652,-0.010431740433,-0.0306997969747,-0.0341041646898,0.0621430613101,-0.0647770389915,0.0252821855247,-0.0370258614421,0.0450261645019,-0.00825468357652,-0.0393079817295,-0.032262865454,0.13962174952,0.0217153821141,-0.0586253888905,0.0989262014627,-0.024245750159,0.0279953945428,-0.114848747849,-0.00948530994356,0.0608878768981,0.12031339854,0.0272661298513,-0.0266829039901,0.153399288654,0.0133342174813,-0.0482971630991
你	0.0316162928939,-0.0633618310094,0.0115433707833,-0.0134759312496,-0.0498275458813,-0.0354143157601,0.00176217185799,-0.0697727426887,-0.045766338706,0.0919622927904,-0.0404633395374,0.160813644528,-0.0959636420012,-0.0709108039737,-0.0802393630147,0.033499289304,0.0367205291986,-0.0431695356965,0.000404111488024,-0.0375981554389,-0.0896936133504,0.0205327235162,0.0135845122859,-0.120361231267,0.0417634472251,-0.0583300665021,0.0073011610657,0.100318394601,0.000644048210233,-0.00559300091118,0.0307115130126,-0.0107917208225,-0.0123127400875,-0.0105516361073,0.0103211728856,-0.0223270393908,0.0440224930644,-0.0841480270028,0.138294234872,-0.0406191647053,-0.00132113159634,-0.0275471583009,-0.0948728993535,-0.0368528626859,0.0407972000539,-0.017788451165,-0.0463648326695,6.79066070006e-05,0.00103815854527,-0.0758999660611,0.0491431392729,-0.00328238774091,0.00364697980694,0.00602750619873,0.013771452941,0.0190796498209,-0.06326135993,0.0918552055955,-0.00483653601259,-0.0599750466645,-0.0599342621863,0.0677545443177,-0.0535277873278,-0.0637272298336,0.0456379130483,0.090513817966,-0.024861510843,-0.0265269912779,-0.00963050127029,0.105590604246,0.0563370212913,-0.0505485013127,0.0508516803384,-0.0880435407162,-0.0833422243595,0.0340834371746,-0.0534577071667,-0.0161162856966,-0.0524349473417,-0.051687605679,0.0807887911797,0.0910482481122,0.0145208500326,0.0216862149537,0.0616033114493,-0.0320933945477,0.0146850012243,0.0387419164181,0.0864299833775,0.0599536970258,-0.0379675142467,0.0807935744524,-0.0068654329516,0.0431895703077,0.0477980524302,0.0255968887359,0.0213701166213,0.000246416282607,0.024621097371,-0.0456072241068,-0.0324992761016,0.0278287548572,-0.0426414757967,-0.131698578596,0.0416644215584,0.0527753718197,-0.0912908315659,0.0491509847343,0.0465021692216,0.0545391216874,0.0808114036918,0.0412696301937,-0.00228980183601,-0.0649857372046,0.0111060263589,0.0657455101609,-0.0348300822079,0.0836153626442,-0.00207048724405,0.011594244279,0.0724208429456,-0.0196440201253,-0.0260685943067,-0.0484973601997,0.0169142000377,-0.0547270327806,-0.0638462379575,-0.0273451451212,0.151340544224,0.0523115359247,0.000210242214962,0.0173735525459,-0.0792974084616,0.0843584910035,-0.0999987870455,0.0242132190615,-0.000480568240164,0.0674378350377,-0.0147540690377,0.0220668539405,-0.0847763344646,0.141194477677,0.0514329075813,-0.0949674248695,0.0372861847281,-0.00248965364881,0.0697228834033,0.0736175552011,-0.133730530739,-0.076504483819,0.0012445547618,-7.50890030758e-05,-0.0218620952219,0.0461758375168,0.0270249638706,-0.0169315505773,0.0340703986585,-0.0390084609389,-0.0195076819509,-0.0938059389591,0.0977506637573,-0.11233472079,0.0666583627462,0.0707636848092,0.00831832364202,-0.0274461396039,-0.0767532289028,-0.0251445304602,0.0436067916453,-0.0853340700269,0.0516988001764,0.0546601600945,0.0365270264447,-0.0455213226378,-0.0988622531295,0.103060215712,-0.0711668133736,-0.0541652292013,-0.0379841923714,-0.0681440904737,-0.0521257221699,-0.124555453658,0.00536839850247,-0.0831924304366,-0.0266834758222,0.00461256830022,-0.00419432437047,-0.0184502229095,0.0219489969313,-0.0172865260392,0.034376244992,0.0270812977105,0.0548261031508,-0.0644244328141,-0.0432229824364,0.0454936474562,0.0296294596046,-0.0039682816714,-0.0151990400627,0.0366958491504,0.0106075881049,-0.0741010382771,0.00244485447183,-0.0175684187561,0.0541290864348,-0.0475381687284,0.047960806638,0.00556017644703,-0.0290706027299,0.00780877750367,-0.0520187430084,0.0188842006028,-0.095056630671,-0.0462934039533,0.0712687820196,0.0550029538572,0.0969103425741,0.070938795805,0.0463336594403,0.0775655210018,0.0416268445551,0.0248954109848,0.0135541427881,-0.0029556110967,-0.0655895322561,-0.0143129508942,0.00230533606373,-0.0225142352283,0.01349788066,0.0431989021599,-0.0531625822186,-0.0116809848696,-0.0948523133993,0.0654862299562,0.0781219229102,-0.00193996517919,0.111050903797,-0.000151905755047,-0.050762463361,-0.0336908735335,0.0352763682604,0.0438859649003,-0.117204658687,0.0465321987867,0.0139602422714,0.0580021627247,-0.00779602117836,-0.00160074234009,-0.0441797114909,-0.0483772680163,0.0135016273707,-0.0539466924965,0.114512115717,-0.0231506656855,-0.0793990194798,-0.0266729556024,0.110625237226,0.01624555327,-0.0192361436784,-0.032681401819,0.0657130926847,-0.0456436946988,-0.0557108297944,-0.0711443275213,-0.0529088824987,0.0746768191457,0.0234908815473,-0.0279983747751,0.0366211086512,0.0254753530025,-0.106506831944,0.0314941070974,0.0210725851357,0.0885575115681,-0.0095896050334,-0.0283250287175,-0.0344850607216,0.0623466223478,-0.0657715424895,0.0241845231503,-0.0374167449772,0.0448621697724,-0.00879213213921,-0.0388680845499,-0.0305476877838,0.13979652524,0.0226017534733,-0.059900790453,0.0987422317266,-0.0222779475152,0.0285276602954,-0.112928077579,-0.00945069734007,0.0615238025784,0.12108886987,0.0255286581814,-0.0288943983614,0.153002232313,0.0135456109419,-0.0481519065797
的	0.029923748225,-0.0628374740481,0.0116171818227,-0.012913454324,-0.052754804492,-0.0347683206201,0.000695048482157,-0.0706034973264,-0.0456514656544,0.0934121534228,-0.0401422008872,0.162223115563,-0.0938125625253,-0.0700454115868,-0.0785551518202,0.0328179560602,0.0360991954803,-0.0439699180424,0.00165099522565,-0.0380381606519,-0.0916054323316,0.0197326298803,0.013206910342,-0.118034489453,0.0419577173889,-0.0579776018858,0.00678506540135,0.0994290411472,0.00192917883396,-0.00317417667247,0.0295453537256,-0.0100328139961,-0.0124991070479,-0.011535005644,0.0106628444046,-0.0197551809251,0.0428052507341,-0.0843736901879,0.139793291688,-0.0379745326936,0.000179929003934,-0.026494750753,-0.0940664112568,-0.0380142256618,0.0421560443938,-0.0196457076818,-0.0452413000166,-0.00147277629003,0.00256348052062,-0.0748927593231,0.0496033206582,-0.00302171427757,0.00630137510598,0.00786740612239,0.0144407227635,0.0192841459066,-0.0655270591378,0.0913345441222,-0.00327181140892,-0.0601058006287,-0.0575679391623,0.0683168247342,-0.0527395941317,-0.0623990036547,0.047228269279,0.0882516056299,-0.0255440548062,-0.0269305706024,-0.00831947103143,0.106556914747,0.0575180575252,-0.0494022704661,0.0507877953351,-0.0903278887272,-0.0813953727484,0.033469516784,-0.0547450818121,-0.0158016961068,-0.0522683747113,-0.051257956773,0.0802088752389,0.0925233289599,0.0147416675463,0.0206556245685,0.0602668747306,-0.0338033437729,0.0154179818928,0.0376062877476,0.0874156281352,0.0571692362428,-0.0385463051498,0.0808344110847,-0.00662665534765,0.0426863841712,0.0483389087021,0.0253982357681,0.0244829338044,-0.000184499716852,0.0263266991824,-0.0470593720675,-0.0312387906015,0.0293545201421,-0.0414093844593,-0.13241699338,0.042169354856,0.053894598037,-0.0928914099932,0.0489929057658,0.0443505197763,0.0537746734917,0.0832488164306,0.0420966856182,-0.00402103783563,-0.0643361359835,0.0119414674118,0.0663462877274,-0.0368708334863,0.0798343494534,-0.00329976412468,0.0123192677274,0.0708635300398,-0.0188041720539,-0.0236464589834,-0.0507640317082,0.0180436801165,-0.0549653694034,-0.0643945634365,-0.0294172633439,0.151569962502,0.051201056689,-0.000371263129637,0.0183270610869,-0.0799439921975,0.0848642960191,-0.0991288125515,0.0244608726352,-0.00140824483242,0.0662234127522,-0.0146634858102,0.0198754109442,-0.0822731330991,0.140974983573,0.050639629364,-0.0951324030757,0.0370774753392,-0.00494384905323,0.069667249918,0.0731248110533,-0.134742021561,-0.0799461230636,0.000440880510723,0.00196275045164,-0.0211968906224,0.0432245098054,0.0292474590242,-0.0178293976933,0.0350785441697,-0.0401200577617,-0.0178661644459,-0.0948972702026,0.0985616967082,-0.112509280443,0.0663624554873,0.0691149607301,0.0107141574845,-0.0263929590583,-0.0783372223377,-0.0250940583646,0.045040037483,-0.0851271823049,0.050732832402,0.056590475142,0.0365032702684,-0.0434347316623,-0.0967935696244,0.101756036282,-0.0698426365852,-0.0518682412803,-0.0381477028131,-0.0654589757323,-0.0547159872949,-0.124584749341,0.0067882896401,-0.0818389877677,-0.0277284085751,0.00552153866738,-0.00466594472528,-0.0162198189646,0.023047061637,-0.0170507896692,0.0322580784559,0.0264805927873,0.05373794958,-0.0666248649359,-0.0398885682225,0.0450440905988,0.0327747762203,-0.0049857753329,-0.0156383402646,0.0350355133414,0.0119894687086,-0.0735003054142,0.00427133822814,-0.0189445298165,0.0544093884528,-0.0493046045303,0.0461748950183,0.00460917409509,-0.0290585272014,0.00657277693972,-0.0517089031637,0.0179234370589,-0.0970276594162,-0.0462554506958,0.069421030581,0.0553552545607,0.0967883989215,0.0744848176837,0.0454910099506,0.0748277828097,0.0428787879646,0.0273990686983,0.0120400097221,-0.000947409600485,-0.0652284920216,-0.012998316437,0.00218094349839,-0.021214293316,0.0135522345081,0.0432299599051,-0.0556598454714,-0.0104578174651,-0.0950894355774,0.0666209459305,0.0783550739288,-0.00472436612472,0.111635796726,0.00207035359927,-0.0508893094957,-0.0340310633183,0.0364856906235,0.0439063087106,-0.117837563157,0.0480516888201,0.0140590062365,0.0590993911028,-0.00776799209416,-0.00215019239113,-0.0451045110822,-0.0495571121573,0.011297901161,-0.0520511865616,0.113551706076,-0.0213364511728,-0.0807895809412,-0.0269252248108,0.109335713089,0.0163710918278,-0.0203708130866,-0.0330602042377,0.0667890310287,-0.0422425344586,-0.0546588078141,-0.0698944851756,-0.0538330115378,0.0740403831005,0.022246170789,-0.0271913763136,0.0376470126212,0.024914437905,-0.107025556266,0.0329282097518,0.0212893877178,0.0877593830228,-0.00932421069592,-0.0284194108099,-0.0346451960504,0.0614401400089,-0.063895508647,0.0242073237896,-0.0358631759882,0.0436883196235,-0.0103675974533,-0.0397160686553,-0.0307126455009,0.14106656611,0.0213550552726,-0.0587616972625,0.0998568683863,-0.0231709964573,0.028765661642,-0.115030191839,-0.00902248453349,0.0610596314073,0.122270420194,0.0271299295127,-0.027387868613,0.152333602309,0.0132470671088,-0.0494820773602
了	0.0292876176536,-0.0624257214367,0.0108635667711,-0.0134715186432,-0.0504643321037,-0.0352906696498,0.000970955879893,-0.0688171461225,-0.0464158952236,0.0921458303928,-0.04192847386,0.161298260093,-0.0950202345848,-0.0694770440459,-0.0804063677788,0.0332677178085,0.0358385592699,-0.0413487926126,0.00113925198093,-0.0365097150207,-0.0912129506469,0.018697142601,0.0124076241627,-0.119408071041,0.0399949513376,-0.0576449818909,0.00615195650607,0.100186914206,0.00303266802803,-0.00209410302341,0.0302789025009,-0.00962782464921,-0.0130058396608,-0.0106041477993,0.00920168310404,-0.0220067705959,0.0442885272205,-0.084454625845,0.138808310032,-0.0404157675803,0.000534503604285,-0.0274464897811,-0.0936705842614,-0.0372968204319,0.0424063056707,-0.0202992036939,-0.0461560152471,-0.00162128568627,0.000780851987656,-0.0737371295691,0.0497325472534,-0.00133149989415,0.00568650010973,0.00520707340911,0.0148770166561,0.0190024506301,-0.0649566799402,0.0899973511696,-0.00208744010888,-0.0602021999657,-0.0559950768948,0.0689900666475,-0.0552861429751,-0.0624757297337,0.0456980243325,0.0885385945439,-0.0250011514872,-0.02597441338,-0.00914939120412,0.105101667345,0.0581048615277,-0.0515333451331,0.0524873882532,-0.0911888107657,-0.0833674743772,0.0339222475886,-0.0546391494572,-0.0162987653166,-0.0538864023983,-0.0540061034262,0.0820960327983,0.0929645076394,0.0151526574045,0.0215848032385,0.060640886426,-0.0330624319613,0.0137603608891,0.0389934293926,0.0881384909153,0.0580438263714,-0.0385756380856,0.0811772495508,-0.007143039722,0.041250564158,0.047257065773,0.0274927169085,0.0222948174924,-0.00200191605836,0.0261933673173,-0.0471216365695,-0.033469222486,0.02896377258,-0.0423046387732,-0.133111819625,0.0405805110931,0.0519457049668,-0.0895662754774,0.0503624863923,0.0449499934912,0.0567395985126,0.0828388184309,0.0423651225865,-0.00192495039664,-0.0663993284106,0.012773597613,0.0664015635848,-0.0363769829273,0.08244779706,-0.00185597932432,0.0111601874232,0.074246391654,-0.0194285120815,-0.0253659263253,-0.0511745810509,0.0185804702342,-0.0550334975123,-0.0651756003499,-0.0279219243675,0.152011483908,0.051711704582,0.000100952391222,0.0184712409973,-0.0782389566302,0.0846572890878,-0.100207023323,0.024013152346,0.000245640723733,0.0679955109954,-0.0149151002988,0.0207777395844,-0.0823346972466,0.142693907022,0.0514448806643,-0.0956126302481,0.0374772213399,-0.00427714316174,0.069284312427,0.0715133622289,-0.133163586259,-0.0798670351505,0.000447786471341,0.000863835448399,-0.0212277043611,0.0434379652143,0.0268545579165,-0.0166129413992,0.0353156328201,-0.0386738367379,-0.0188103113323,-0.0949726775289,0.0994585230947,-0.112471468747,0.0669196099043,0.0720079615712,0.0110586462542,-0.0268026385456,-0.0795061588287,-0.0261473841965,0.0425040610135,-0.0837713554502,0.0498359538615,0.0560582466424,0.035557217896,-0.0429658703506,-0.097789414227,0.101021550596,-0.06945066154,-0.0515076629817,-0.0363925434649,-0.0665733739734,-0.0536531731486,-0.125143364072,0.00515529559925,-0.0820907056332,-0.0267095398158,0.00275525543839,-0.00500633427873,-0.0182606354356,0.0207533538342,-0.0162599962205,0.0325258150697,0.0254061054438,0.05216293782,-0.0669624432921,-0.0420472286642,0.0451551787555,0.0338696986437,-0.00476000225171,-0.0162455514073,0.0347968861461,0.0117864338681,-0.0733796209097,0.00252591841854,-0.017717173323,0.0520138442516,-0.0494936779141,0.0467225424945,0.00692551024258,-0.0267649926245,0.0083068665117,-0.0510392934084,0.0200770515949,-0.0966089963913,-0.0460711382329,0.0695320218801,0.0564630702138,0.0990861430764,0.073291324079,0.0447107516229,0.0766765624285,0.0416478775442,0.0284450016916,0.0133727956563,-0.00269596092403,-0.0658088698983,-0.0156467165798,0.00256254291162,-0.022355331108,0.0146685531363,0.0434824749827,-0.0567646734416,-0.011788001284,-0.0948920473456,0.0652259364724,0.0772726759315,-0.0040510171093,0.108019791543,0.00150894571561,-0.0517051257193,-0.0345398448408,0.0357339978218,0.0439724586904,-0.115450538695,0.0473406650126,0.0137928342447,0.0573584102094,-0.00605481583625,-0.00119198148604,-0.046703979373,-0.0491359010339,0.0145761752501,-0.0528820604086,0.116081863642,-0.0196189526469,-0.0785673931241,-0.0290224812925,0.108670301735,0.0178960766643,-0.019557569176,-0.0349800623953,0.0665175244212,-0.0426936298609,-0.0557124130428,-0.0696114972234,-0.0528596416116,0.0744578316808,0.0232710558921,-0.0270069167018,0.0362832210958,0.0238214842975,-0.106989406049,0.0327142551541,0.0203250907362,0.0888270437717,-0.00768242729828,-0.0295282397419,-0.0337759032845,0.0596932247281,-0.0622118338943,0.0256872270256,-0.037230886519,0.0459573939443,-0.00933607853949,-0.040078163147,-0.0310560464859,0.140651360154,0.0200356375426,-0.0575561821461,0.0991868749261,-0.0234483368695,0.0266463886946,-0.113549381495,-0.0101081263274,0.0615829601884,0.12154173851,0.0251520164311,-0.0271309595555,0.15099337697,0.0115446196869,-0.0494015477598
是	0.0293707828969,-0.063682243228,0.00868061371148,-0.0137882009149,-0.0506860092282,-0.033198479563,0.0016387704527,-0.0699374526739,-0.0472982749343,0.0920970067382,-0.0394925326109,0.161454170942,-0.0938703417778,-0.0718550905585,-0.0790275856853,0.0336657688022,0.0370126105845,-0.0406185761094,0.00036626169458,-0.038213185966,-0.0923767238855,0.0209460686892,0.0129502657801,-0.119046784937,0.0405245870352,-0.0575447529554,0.00687313545495,0.100560076535,0.00233071553521,-0.0052083954215,0.0297613386065,-0.00787790492177,-0.0113699799404,-0.00972929224372,0.00972325354815,-0.0196724329144,0.0451815910637,-0.084395185113,0.138436317444,-0.0406299568713,0.000379001779947,-0.0264881514013,-0.0929243266582,-0.0367597751319,0.0439704880118,-0.0197905506939,-0.0442128889263,-0.0020641211886,0.00184630590957,-0.0767025277019,0.047087918967,-0.00310288718902,0.00413095671684,0.00578432576731,0.0123674655333,0.0186358578503,-0.0634177923203,0.0919054225087,-0.000552557583433,-0.0610010325909,-0.0585711672902,0.0698533579707,-0.0535864718258,-0.0621213912964,0.0446305014193,0.0892310887575,-0.0252643246204,-0.0262524187565,-0.00997935421765,0.105567581952,0.0557868331671,-0.0500012375414,0.050460100174,-0.0914279669523,-0.0821115896106,0.0349190533161,-0.0552005209029,-0.0159703474492,-0.0535923093557,-0.0530587881804,0.0812581703067,0.0916724875569,0.0129873370752,0.0228604823351,0.0614206418395,-0.0334881469607,0.0157286040485,0.0384679250419,0.0889185145497,0.0567486025393,-0.0376280248165,0.0802441760898,-0.00857714563608,0.0423782467842,0.0470670983195,0.0270703621209,0.0246519800276,-0.0026527068112,0.0243009719998,-0.0469802431762,-0.0319449566305,0.0283655356616,-0.0428351014853,-0.133305370808,0.0415089353919,0.0540723800659,-0.0894399657845,0.0495380237699,0.046524066478,0.0548682548106,0.0821649208665,0.0416460260749,-0.0033623680938,-0.0658569857478,0.0111273927614,0.0655620992184,-0.0346709340811,0.0840038582683,-0.00239124009386,0.0116542652249,0.0725859627128,-0.0188840329647,-0.0233694221824,-0.0508558824658,0.0169019494206,-0.0542670041323,-0.064995534718,-0.0286705195904,0.151681363583,0.0510675758123,-0.00208208360709,0.018607892096,-0.0792209133506,0.0831418782473,-0.101908296347,0.0245800558478,-0.00152125977911,0.068343475461,-0.0165381226689,0.0210546087474,-0.084665954113,0.14313454926,0.0512986928225,-0.0963087677956,0.0360018610954,-0.00269550760277,0.0682173743844,0.070217974484,-0.132554903626,-0.0784394070506,0.00141815829556,0.000237623637076,-0.021892959252,0.0438985079527,0.0280042365193,-0.0190849918872,0.033874168992,-0.0400639735162,-0.0177946016192,-0.0955652594566,0.0986022204161,-0.112003602087,0.0670333206654,0.0702809840441,0.0112645104527,-0.0264440476894,-0.0802302286029,-0.0260819364339,0.0437135472894,-0.085087865591,0.0508440732956,0.05593720451,0.0370116233826,-0.0448258034885,-0.0995422452688,0.100179672241,-0.0688129514456,-0.053802151233,-0.0373315736651,-0.0669916272163,-0.0552522055805,-0.126377567649,0.0079486342147,-0.0840652957559,-0.0286269970238,0.0054159425199,-0.00376224773936,-0.0151607068256,0.0203788522631,-0.0158679652959,0.0322143360972,0.0260785296559,0.0515414997935,-0.0653666257858,-0.0416513457894,0.0445350781083,0.0316801816225,-0.00153321051039,-0.0162284653634,0.0355028882623,0.0101975211874,-0.0725015103817,0.00413899123669,-0.0200821273029,0.053330078721,-0.0501234345138,0.047841206193,0.00497222319245,-0.0263890549541,0.00784525182098,-0.0506544820964,0.0188639760017,-0.0974464640021,-0.0460089370608,0.0666436031461,0.053951010108,0.0959141254425,0.0725112035871,0.0461222156882,0.0742221102118,0.0420735515654,0.0275613628328,0.0130519438535,-0.000421213801019,-0.0628669336438,-0.0155018670484,0.00319007597864,-0.0201734378934,0.0153824090958,0.0410524792969,-0.0559311471879,-0.0128020038828,-0.0932110920548,0.0680437907577,0.0774091407657,-0.001958765788,0.107005558908,0.000350570830051,-0.0500541441143,-0.0350607968867,0.0347995236516,0.0434523820877,-0.112651512027,0.0432546511292,0.0140455141664,0.0571895763278,-0.00506526231766,-0.00122683518566,-0.0455471761525,-0.0501899048686,0.0104643516243,-0.05318531394,0.115996018052,-0.0221560448408,-0.0817632898688,-0.0286197308451,0.109613619745,0.0169351883233,-0.0218266341835,-0.0347953625023,0.0662475377321,-0.0460482016206,-0.0551636964083,-0.0705118477345,-0.053033683449,0.0759133473039,0.0250401049852,-0.0284393727779,0.0382778085768,0.0266412384808,-0.107990831137,0.0342842005193,0.0226438380778,0.0895958468318,-0.00869829207659,-0.0290356352925,-0.0339570231736,0.0604766234756,-0.0654093623161,0.0239935070276,-0.0366496704519,0.0448524840176,-0.0105231925845,-0.0399521179497,-0.0321988165379,0.138894587755,0.0203491728753,-0.0588503777981,0.100513234735,-0.0252743344754,0.0278216805309,-0.112557314336,-0.0103091932833,0.06218957901,0.121683694422,0.0264183524996,-0.0287416875362,0.152641445398,0.0118346111849,-0.048637855798
他	0.0316427387297,-0.0634028762579,0.0102025857195,-0.0142033006996,-0.0510865151882,-0.0351647660136,0.00172193313483,-0.0684760957956,-0.0469862222672,0.0923011302948,-0.0390640236437,0.161323770881,-0.0958996862173,-0.0699566677213,-0.0788370296359,0.0327379666269,0.036025904119,-0.0424403771758,5.20298272022e-05,-0.0367409177125,-0.0884261056781,0.0191449634731,0.013415989466,-0.119792610407,0.0415893159807,-0.0568788796663,0.00740580586717,0.0975059345365,0.00091723096557,-0.00463569490239,0.032019238919,-0.010705572553,-0.011970509775,-0.0105654159561,0.00984510686249,-0.0222632717341,0.0449402816594,-0.0851943343878,0.138860553503,-0.0386214666069,-0.00145001418423,-0.0271416883916,-0.094631575048,-0.0372675061226,0.039619166404,-0.0186201035976,-0.0442242436111,-0.000692473375238,6.9769572292e-05,-0.0748445540667,0.04805463925,-0.00198607542552,0.0038934785407,0.00716611370444,0.0139295328408,0.0196281466633,-0.0656706914306,0.0922615677118,-0.00375490821898,-0.0606211312115,-0.0590919069946,0.0696045383811,-0.0549181587994,-0.0637441948056,0.0452247932553,0.088967345655,-0.0259064454585,-0.025789860636,-0.00734911160544,0.107196360826,0.0569313839078,-0.0489981621504,0.0526108928025,-0.0889062732458,-0.0839088559151,0.0334982760251,-0.0532222092152,-0.015524555929,-0.0532126799226,-0.0510850027204,0.0806209072471,0.0920936316252,0.0130224470049,0.0209339559078,0.0601986609399,-0.0325409770012,0.0145464139059,0.0376918502152,0.0869482532144,0.0576205253601,-0.0388973169029,0.0813445746899,-0.0061854175292,0.0403724573553,0.0469920188189,0.0274905897677,0.023261917755,-0.000521910027601,0.025759043172,-0.0474536977708,-0.0327722840011,0.0302494429052,-0.0417749620974,-0.132000461221,0.0413893461227,0.0527504198253,-0.0911540314555,0.0477524250746,0.047589275986,0.0545746274292,0.082668595016,0.0422829799354,-0.00294262357056,-0.0643320381641,0.0116358716041,0.0678915902972,-0.0353385806084,0.0826780647039,-0.00297583290376,0.0111285168678,0.0718252211809,-0.0195660386235,-0.0262253545225,-0.0495621822774,0.0186504181474,-0.0551959984004,-0.062539845705,-0.028850832954,0.152680307627,0.0528606660664,-0.000496983411722,0.019356681034,-0.0792392790318,0.0821561813354,-0.0985612273216,0.0234115533531,-0.00144077395089,0.0676582753658,-0.015393724665,0.0210648700595,-0.0847447663546,0.142375946045,0.0503086708486,-0.0959249809384,0.0377206392586,-0.00477073248476,0.0703165531158,0.0720874518156,-0.134093508124,-0.0790038555861,0.000812491576653,-0.000720478652511,-0.0225592982024,0.0458583198488,0.0278384517878,-0.0192273017019,0.0338944494724,-0.0404133722186,-0.0174168217927,-0.0943793728948,0.0990298613906,-0.110908448696,0.0649358257651,0.07004917413,0.00971052516252,-0.0254229512066,-0.07607896626,-0.0258813146502,0.0438834056258,-0.0846981033683,0.0496963746846,0.057081989944,0.0347890369594,-0.0444263704121,-0.0969753414392,0.102454081178,-0.0709407180548,-0.0523122176528,-0.0374057739973,-0.0668343901634,-0.0532119832933,-0.125724583864,0.00596317416057,-0.0821154043078,-0.0272498186678,0.00323227257468,-0.00313550559804,-0.0189084280282,0.0215190127492,-0.0166002232581,0.0340303331614,0.026023844257,0.0529684647918,-0.0653918460011,-0.0427197217941,0.0445056930184,0.0295000933111,-0.00337237166241,-0.0155838457868,0.0360658615828,0.0110505400226,-0.0739907771349,0.00306000560522,-0.0184343811125,0.052984341979,-0.0491202548146,0.0490693934262,0.00517452415079,-0.0289429221302,0.00899042282254,-0.0509526841342,0.018040407449,-0.0952375605702,-0.0456118285656,0.0710633248091,0.0557089671493,0.0993075817823,0.0720242857933,0.0462077260017,0.0769301131368,0.0422628745437,0.0257547032088,0.0130181796849,-0.00159538723528,-0.0653858929873,-0.0146280126646,0.0032838115003,-0.0231883786619,0.0155273070559,0.0445076115429,-0.0549933277071,-0.011193446815,-0.0947015509009,0.0661235973239,0.0770150497556,-0.00210135872476,0.110781148076,-0.000591145828366,-0.0498615838587,-0.0341953970492,0.0372304841876,0.044040966779,-0.119558483362,0.0496215261519,0.0135684087873,0.0585656836629,-0.00782779604197,-0.00256162625737,-0.0453031510115,-0.048642411828,0.0125387748703,-0.0521220602095,0.115884482861,-0.0212198849767,-0.0793390646577,-0.0274029057473,0.108966566622,0.0161162503064,-0.018554225564,-0.0326143950224,0.0652296841145,-0.0452498868108,-0.0563633665442,-0.0708495005965,-0.0522369407117,0.074996009469,0.0230494234711,-0.0263148210943,0.0367264263332,0.026629159227,-0.106706500053,0.0325199961662,0.0220221802592,0.0891514346004,-0.0103662321344,-0.0283595789224,-0.0337240621448,0.0600531250238,-0.0641349181533,0.0260121673346,-0.0364098697901,0.0446091070771,-0.00982348248363,-0.0391333810985,-0.0299878492951,0.140698000789,0.0235640145838,-0.0585362240672,0.098501265049,-0.023171165958,0.0274715721607,-0.113877028227,-0.0087681049481,0.0602945610881,0.120329484344,0.0264976341277,-0.0285096801817,0.152654707432,0.013881623745,-0.0487411245704
在	0.0296985395253,-0.0633707568049,0.00836947001517,-0.0138695565984,-0.0505121722817,-0.0356906317174,0.00277514848858,-0.0676758959889,-0.0460700616241,0.0917593538761,-0.0379579290748,0.161898374557,-0.0957869663835,-0.07115483284,-0.0785149931908,0.0319782905281,0.0349171943963,-0.0415695011616,0.000733690860216,-0.0389344207942,-0.0897859558463,0.0202921982855,0.0139757432044,-0.118831209838,0.0403273738921,-0.0569393262267,0.00723586371168,0.0980945378542,0.00422510132194,-0.00360570801422,0.0308732576668,-0.00859415810555,-0.0116610890254,-0.00977575406432,0.00784542970359,-0.021124240011,0.0447487682104,-0.0853497162461,0.140366226435,-0.0393723510206,-0.00215585529804,-0.0276129711419,-0.0928692221642,-0.038446970284,0.0415050685406,-0.0206293202937,-0.0453757680953,-0.00289283483289,0.00185935932677,-0.075658030808,0.0468242242932,-0.0027700108476,0.0038877048064,0.00705110980198,0.0142190586776,0.0195996016264,-0.0660216659307,0.0920715853572,-0.00204575620592,-0.0605098642409,-0.0594772547483,0.0688171833754,-0.0541420094669,-0.0622826963663,0.0446069017053,0.0888268426061,-0.0277170892805,-0.0261480454355,-0.0069564091973,0.107161670923,0.057051628828,-0.0511198230088,0.0524635389447,-0.0910853520036,-0.083520501852,0.0351721048355,-0.0553585477173,-0.0156941358,-0.0525956600904,-0.0526900328696,0.0803538039327,0.0917283296585,0.0141525156796,0.0220929253846,0.0600660666823,-0.0322410576046,0.0145011171699,0.0382303670049,0.08819296211,0.0569888912141,-0.0384687073529,0.0817103013396,-0.00823282357305,0.0409467369318,0.0475365407765,0.0259639434516,0.0239109192044,-0.000286465801764,0.0253152642399,-0.0488792844117,-0.0313524864614,0.029395872727,-0.0413278676569,-0.133427068591,0.0406260229647,0.0510469041765,-0.0898778215051,0.0506104342639,0.047073982656,0.0534623451531,0.0818242579699,0.0417822040617,-0.00241667940281,-0.0651163905859,0.0135762365535,0.0680018663406,-0.0363590121269,0.0819842964411,-0.00384224927984,0.0115607026964,0.0723664313555,-0.0175863914192,-0.027464563027,-0.049772143364,0.0177541226149,-0.0535207614303,-0.0641397833824,-0.0279356911778,0.151373058558,0.0535093843937,-0.000707832863554,0.0174512006342,-0.0768849924207,0.0833706110716,-0.0989579856396,0.0249260477722,-0.000900165294297,0.0679895654321,-0.0163077320904,0.0187412407249,-0.0845270007849,0.140604376793,0.0494811944664,-0.0957389250398,0.0375778861344,-0.00412511499599,0.0676313564181,0.0725252702832,-0.133430674672,-0.0790611431003,0.0005333776935,0.000248584285146,-0.0227285139263,0.043382037431,0.0270984098315,-0.0193289127201,0.0351372994483,-0.0408844836056,-0.0194278005511,-0.0948247238994,0.10021135956,-0.112408705056,0.0658286511898,0.0710646137595,0.00967293512076,-0.0265222005546,-0.0775783285499,-0.0251807700843,0.0424792356789,-0.0843260735273,0.050328399986,0.0565861389041,0.0346960425377,-0.0442056581378,-0.0970530882478,0.101128213108,-0.0715388804674,-0.0521150715649,-0.0355016961694,-0.0648282691836,-0.0531099364161,-0.126791059971,0.00797131936997,-0.0835140645504,-0.0275840610266,0.00139312050305,-0.00325625087135,-0.0181035771966,0.0231438614428,-0.015065761283,0.0326622202992,0.0255827214569,0.0530467554927,-0.0645393133163,-0.0405099727213,0.0447694212198,0.0311731044203,-0.00166293885559,-0.0152640612796,0.0359555222094,0.010541876778,-0.0721883177757,0.00407955236733,-0.0178741905838,0.0523451864719,-0.0498936511576,0.04855902493,0.00528700184077,-0.0264409482479,0.00774837611243,-0.0525397732854,0.0187506712973,-0.095990896225,-0.0454156212509,0.0684933662415,0.055799741298,0.0983821302652,0.0738625228405,0.0463675409555,0.0772269442677,0.0426937006414,0.0263049639761,0.0115191228688,-0.00101662473753,-0.0648193210363,-0.0152977705002,0.00231475709006,-0.0208304040134,0.0163651071489,0.0429622977972,-0.0565203949809,-0.0110378805548,-0.093976020813,0.0675022825599,0.0770893618464,-0.00287084490992,0.110379196703,0.000915451790206,-0.0500529818237,-0.0336626730859,0.0375733859837,0.0455212779343,-0.119719564915,0.047935243696,0.0144823780283,0.0593492649496,-0.00617134245113,-0.00268050353043,-0.0456213615835,-0.0498727709055,0.0124858319759,-0.0518221221864,0.116068340838,-0.0226930771023,-0.0800807774067,-0.0277676526457,0.106617897749,0.0151729015633,-0.0205932147801,-0.0350017696619,0.0654478892684,-0.0444113388658,-0.056970000267,-0.0706375017762,-0.0509185902774,0.0763393640518,0.0227808766067,-0.0282402355224,0.0373049303889,0.0242255274206,-0.10770329833,0.0327247940004,0.0228877030313,0.0902218222618,-0.00974871590734,-0.0297563523054,-0.034994404763,0.0594334565103,-0.0630615130067,0.0263450890779,-0.035749796778,0.0451349802315,-0.00900461059064,-0.0389647446573,-0.0328450091183,0.139846906066,0.0219242945313,-0.059043224901,0.0990201234818,-0.0213471930474,0.0253762509674,-0.116090357304,-0.00908960495144,0.0601168982685,0.120743744075,0.0254403930157,-0.0271578077227,0.151020228863,0.0143443094566,-0.0490206554532
我们	0.0322279594839,-0.063339419663,0.00954636372626,-0.0125029217452,-0.0507780052722,-0.0352501645684,0.00086581526557,-0.0696125552058,-0.0466010086238,0.0905940979719,-0.0393499620259,0.162172958255,-0.0974159687757,-0.0717671811581,-0.0797765627503,0.0332590341568,0.0361909158528,-0.0432254001498,0.00193221471272,-0.0369442999363,-0.0902414768934,0.0200005490333,0.0126784704626,-0.119868665934,0.0399752482772,-0.057983070612,0.00745355291292,0.0999203175306,0.00300012016669,-0.00428659515455,0.0309669822454,-0.0115738054737,-0.0118715008721,-0.0117507586256,0.00903865788132,-0.0219014827162,0.0444719195366,-0.0860645100474,0.140417903662,-0.0393027439713,-0.000796719570644,-0.0259076207876,-0.0933506786823,-0.0373561196029,0.041100949049,-0.0193350445479,-0.0460941083729,-0.00137493445072,0.000269573618425,-0.0755836218596,0.0475501865149,-0.00260864384472,0.00398007733747,0.0058683231473,0.0128232631832,0.0202608834952,-0.0641195699573,0.0901777520776,-0.00382854952477,-0.0612718351185,-0.0587053894997,0.0694292709231,-0.0545377321541,-0.0635015815496,0.0447829067707,0.0883525237441,-0.0271358266473,-0.0264481175691,-0.00784931983799,0.106877833605,0.0586533695459,-0.0507276505232,0.0524544268847,-0.089580476284,-0.0850593447685,0.0331751182675,-0.0537774823606,-0.015369573608,-0.0536695048213,-0.0526669360697,0.0811162218451,0.0915103256702,0.0148719586432,0.0221945531666,0.0602443516254,-0.032600287348,0.0146623952314,0.0376315303147,0.0872123464942,0.0579957552254,-0.0368770249188,0.0810531750321,-0.00717609655112,0.0402785427868,0.0480893291533,0.0261808224022,0.0227111130953,-0.000342799728969,0.0259473919868,-0.0475170984864,-0.0311174821109,0.0291745457798,-0.0416978932917,-0.131536185741,0.0419166237116,0.0524003058672,-0.0919273048639,0.0488049089909,0.0449203215539,0.0548805519938,0.0836788192391,0.0425536036491,-0.0019436479779,-0.0643877387047,0.0131723759696,0.0680782571435,-0.0357535630465,0.0819629579782,-0.00193920382299,0.0093571767211,0.0720949247479,-0.0177344791591,-0.0259306300431,-0.0491367504001,0.0170689374208,-0.054626468569,-0.0631377100945,-0.0285487677902,0.15206618607,0.0517031736672,0.00047482692753,0.0164607595652,-0.0794988200068,0.0830615311861,-0.0987371578813,0.0233448334038,-0.000414907495724,0.0678554773331,-0.0156519673765,0.0214086100459,-0.0835343748331,0.140611410141,0.0512686744332,-0.0949040874839,0.0363617949188,-0.00529724406078,0.0698563158512,0.0732254907489,-0.133871510625,-0.0787527114153,0.00164183485322,0.000897400197573,-0.022844241932,0.0461018756032,0.0280913803726,-0.0166803542525,0.0353515520692,-0.0403012745082,-0.0197668448091,-0.0941703766584,0.0996338799596,-0.112220443785,0.0649023354053,0.0717948451638,0.00977216754109,-0.0269600655884,-0.0769971758127,-0.0264300145209,0.043604966253,-0.0841349810362,0.0507409572601,0.056163482368,0.034388743341,-0.0440850704908,-0.0963861197233,0.102463155985,-0.0723321884871,-0.0525255799294,-0.0357957445085,-0.0664749890566,-0.0522662736475,-0.125478073955,0.00709671573713,-0.0847141221166,-0.0283543225378,0.00450459076092,-0.00257194344886,-0.0171928964555,0.0212395340204,-0.0157503895462,0.0328630283475,0.0264016725123,0.0525020211935,-0.064670830965,-0.0424091294408,0.0440220683813,0.0325299575925,-0.00347336335108,-0.0153058376163,0.0363842435181,0.01237525139,-0.0729568824172,0.00327804288827,-0.0183512810618,0.0539620891213,-0.0486602336168,0.0478704385459,0.0055598593317,-0.028677014634,0.00781762134284,-0.051096316427,0.018773837015,-0.0970774963498,-0.045491848141,0.0703808143735,0.0559085160494,0.0993629917502,0.0724998190999,0.045793171972,0.077607370913,0.0423605255783,0.0255241133273,0.0131881302223,-0.00202236953191,-0.0643907636404,-0.0150520149618,0.00351306563243,-0.0222166087478,0.0132325952873,0.0438330732286,-0.0546354092658,-0.0127935577184,-0.0949823334813,0.0652718991041,0.0769129619002,-0.00204256130382,0.110398463905,-0.000384256825782,-0.0494966544211,-0.0344305112958,0.0332865975797,0.0422248356044,-0.115140475333,0.0468075200915,0.0150758530945,0.0570121482015,-0.00678576854989,-0.00189755437896,-0.045124784112,-0.0493273213506,0.0132294213399,-0.0520517975092,0.114697471261,-0.0210531484336,-0.0794182419777,-0.0267731249332,0.10784561187,0.0160162914544,-0.018386837095,-0.0339627042413,0.0654573440552,-0.0443211682141,-0.0557207539678,-0.0709925740957,-0.0512284450233,0.0749769806862,0.0246845092624,-0.0275822561234,0.0349904969335,0.0242644697428,-0.105918429792,0.0320471413434,0.0217199418694,0.0894252881408,-0.00951907131821,-0.0281531102955,-0.03439200297,0.0597652606666,-0.0631252676249,0.0254883170128,-0.0382759086788,0.0443329401314,-0.0102231651545,-0.0409051328897,-0.0318732261658,0.141115486622,0.0220243763179,-0.0586259514093,0.099570594728,-0.022106487304,0.0276889540255,-0.114675737917,-0.0107091059908,0.0610925257206,0.120392769575,0.0249846689403,-0.0282746590674,0.153180614114,0.0127491774037,-0.0492470450699
她	0.0315546542406,-0.0627634748816,0.0108441459015,-0.0129159903154,-0.0514635518193,-0.0358167402446,0.00202643172815,-0.0686678215861,-0.0456048473716,0.0914442613721,-0.0391540303826,0.161035463214,-0.0973226130009,-0.0702459663153,-0.0805675312877,0.032546069473,0.0349354334176,-0.0421203970909,0.000490949780215,-0.0375742502511,-0.0894536301494,0.0191153082997,0.0122238295153,-0.118357688189,0.041272636503,-0.0579684525728,0.00818985607475,0.0997513458133,0.000953873852268,-0.00454465672374,0.030157731846,-0.0103359669447,-0.0124493008479,-0.0106433294713,0.00921205244958,-0.022529700771,0.0441140606999,-0.084383636713,0.139405071735,-0.0388105399907,-0.00153990741819,-0.0280414726585,-0.0936121270061,-0.0366168916225,0.0407218486071,-0.0185135155916,-0.046065300703,-0.000540808949154,0.00186020566616,-0.07517234236,0.0484687201679,-0.00174471957143,0.00383114488795,0.00676464289427,0.0134011814371,0.0197405982763,-0.065578609705,0.0912452116609,-0.00397022301331,-0.0594867914915,-0.057485345751,0.0692872926593,-0.0544935427606,-0.0625998005271,0.0454467497766,0.0880785956979,-0.0253342986107,-0.0262193847448,-0.00841208547354,0.106958150864,0.057089664042,-0.0501698330045,0.0515241697431,-0.0892777740955,-0.0841978341341,0.0331361591816,-0.0542113855481,-0.0164416991174,-0.0533047504723,-0.0523063391447,0.0807718038559,0.0931654945016,0.0141207454726,0.0210708230734,0.0609399564564,-0.0324637666345,0.0146479187533,0.038737475872,0.0879085361958,0.0579749941826,-0.0374776497483,0.0819169059396,-0.00695656752214,0.0410430133343,0.0479799024761,0.0269346684217,0.0232265498489,-0.00152891175821,0.0264428537339,-0.0476507656276,-0.0314228050411,0.0284230560064,-0.0409328490496,-0.1317127496,0.0418054461479,0.0512691140175,-0.0922218635678,0.0488230660558,0.0467785336077,0.0557750053704,0.0819858089089,0.0422011166811,-0.00142761715688,-0.065359018743,0.0123998429626,0.0668750032783,-0.0353391319513,0.0817902907729,-0.00207137316465,0.00940791796893,0.0719327479601,-0.0185441356152,-0.0266719311476,-0.0497359372675,0.018210042268,-0.0551130026579,-0.0634709745646,-0.0291343443096,0.152951449156,0.0527404658496,-0.000468000827823,0.0175749752671,-0.0790360495448,0.0833314433694,-0.0992266684771,0.022733496502,-0.000331771268975,0.0665382519364,-0.0158151108772,0.0204790867865,-0.0851215645671,0.140891000628,0.0508952438831,-0.0942900106311,0.037251457572,-0.00460087927058,0.0706965401769,0.0725368186831,-0.134479597211,-0.0783544406295,-0.000625336891972,0.000763519026805,-0.0223743021488,0.0444285012782,0.0285071600229,-0.0188099965453,0.0349373742938,-0.0396478101611,-0.0181914623827,-0.0953041091561,0.0989470034838,-0.112086355686,0.0663500204682,0.071517303586,0.0102167800069,-0.0261196326464,-0.0765040740371,-0.0250284634531,0.0433786660433,-0.0846277549863,0.0501987412572,0.056390132755,0.0352677628398,-0.04380242154,-0.0966718196869,0.101900845766,-0.0702868402004,-0.0529002770782,-0.0354224294424,-0.0662187412381,-0.053116004914,-0.126120656729,0.00546679552644,-0.0828574895859,-0.0275349915028,0.00339540699497,-0.00408463552594,-0.0186804048717,0.0214326065034,-0.0166408158839,0.0340851135552,0.0258512552828,0.0539425425231,-0.0648768916726,-0.042549636215,0.044482704252,0.0304579883814,-0.00453383987769,-0.0152797764167,0.0353082865477,0.0108929667622,-0.0744506344199,0.00293900631368,-0.0178726091981,0.0522969476879,-0.0482515208423,0.0476397871971,0.00454259756953,-0.0285520628095,0.00751487864181,-0.0522417388856,0.0191227439791,-0.0959955975413,-0.0462516508996,0.0709386020899,0.0562572777271,0.0981690809131,0.0732344016433,0.0455183647573,0.0768918693066,0.0418726094067,0.0259704478085,0.0135717671365,-0.00207212287933,-0.0660564154387,-0.0155441137031,0.00207398924977,-0.0225148685277,0.0148209482431,0.0431345812976,-0.0557756721973,-0.0114833563566,-0.0949001312256,0.0665832981467,0.0787730142474,-0.00306834699586,0.110865287483,1.55817124323e-05,-0.0500642471015,-0.0343293473125,0.0358466207981,0.0447059907019,-0.11635042727,0.048683732748,0.0146820591763,0.0585905276239,-0.0078650964424,-0.00171300233342,-0.0461147390306,-0.0478537008166,0.0144535861909,-0.0525033771992,0.11491715163,-0.0214261226356,-0.0791478902102,-0.0267882198095,0.108452700078,0.0151815265417,-0.0200345795602,-0.0339619293809,0.0651102885604,-0.0445629358292,-0.0562704131007,-0.0704341754317,-0.0522550493479,0.0741729959846,0.0235421769321,-0.0264545120299,0.035451553762,0.02440061979,-0.108052439988,0.0323386266828,0.0227071065456,0.0884541943669,-0.0091924611479,-0.0292923115194,-0.0340749882162,0.0603371970356,-0.0646786242723,0.0249250698835,-0.0368031263351,0.0448383055627,-0.00877296086401,-0.040256883949,-0.0306549277157,0.140415623784,0.0223518554121,-0.0580759420991,0.0997141748667,-0.0220004823059,0.0273378845304,-0.114588804543,-0.00839765183628,0.0612177960575,0.120131641626,0.0250691007823,-0.0281215496361,0.152436479926,0.0143847819418,-0.0482056364417
.	0.0316455513239,-0.0629321336746,0.00928976014256,-0.0136373294517,-0.0521856993437,-0.0350865870714,0.00147887319326,-0.068457365036,-0.0452598109841,0.0926869511604,-0.039061807096,0.161201760173,-0.0958774015307,-0.0722113549709,-0.0809140056372,0.0330000594258,0.0365453958511,-0.0434005185962,0.000835119397379,-0.0371885746717,-0.0913024544716,0.020275907591,0.0113902539015,-0.117100000381,0.0418431535363,-0.0580084435642,0.00727452896535,0.100341722369,0.00286957784556,-0.00305945868604,0.0304952673614,-0.0101089561358,-0.0125860925764,-0.0117415916175,0.00815807655454,-0.0219563059509,0.0436996258795,-0.0840107426047,0.138292908669,-0.0405578054488,-0.00208430783823,-0.0256306566298,-0.0933296456933,-0.0377446636558,0.0420655570924,-0.0178819019347,-0.044328160584,-0.00251874071546,0.00152832234744,-0.0762022063136,0.0495424047112,-0.00319213536568,0.00475237425417,0.0064543960616,0.0135052464902,0.019376963377,-0.0655453205109,0.0917674973607,-0.00207603117451,-0.0588494464755,-0.0573264062405,0.069302238524,-0.0547743290663,-0.0630820468068,0.0457761287689,0.0890503451228,-0.0257770773023,-0.0250365678221,-0.00998023804277,0.107521638274,0.0584439076483,-0.0501513816416,0.0519216246903,-0.0897298529744,-0.082410082221,0.0330693721771,-0.0545029379427,-0.0167168099433,-0.0535026155412,-0.0534710995853,0.0790712833405,0.0920007899404,0.0127895735204,0.0223763138056,0.0589139088988,-0.0319134779274,0.015226425603,0.0380387865007,0.0867865160108,0.0557023659348,-0.0389723554254,0.0812806636095,-0.00749855628237,0.040271114558,0.0479229949415,0.0257538836449,0.0239056535065,-0.000454238761449,0.0247471984476,-0.046855006367,-0.031789097935,0.0280436724424,-0.0404966212809,-0.133376702666,0.0416164137423,0.0529340803623,-0.0928145870566,0.0496611297131,0.0447958931327,0.0544922836125,0.0843313708901,0.0419818647206,-0.00211435370147,-0.0657493248582,0.0134753370658,0.0672891959548,-0.0357810743153,0.0824416577816,-0.00341648515314,0.0112840300426,0.0702958032489,-0.0191276296973,-0.0252581238747,-0.0492822267115,0.019538488239,-0.0551300607622,-0.0652682259679,-0.0286429524422,0.152133330703,0.0510516278446,-0.000747106212657,0.018804743886,-0.0794035643339,0.0846337080002,-0.0995645225048,0.0233446154743,-0.000921067257877,0.0673215165734,-0.0165177509189,0.021198797971,-0.0839987844229,0.140108957887,0.0513429567218,-0.0960036218166,0.0355955660343,-0.00396924000233,0.0691565647721,0.0715620666742,-0.134825959802,-0.0803310722113,0.000912682036869,0.00117287202738,-0.0231830012053,0.0464279428124,0.0280468799174,-0.018842112273,0.0362763926387,-0.0401390828192,-0.0189728625119,-0.096117131412,0.0974777340889,-0.11032628268,0.0648195967078,0.071184836328,0.0120903868228,-0.0276358071715,-0.0782008394599,-0.0257768258452,0.04462749511,-0.0845010429621,0.0506278797984,0.0564240664244,0.0347487591207,-0.044525641948,-0.0966311693192,0.102182351053,-0.0706082284451,-0.053145494312,-0.0353670306504,-0.0664953589439,-0.0552462972701,-0.125159263611,0.00633947644383,-0.0836876258254,-0.0288680549711,0.00476469332352,-0.00298837432638,-0.0169066246599,0.0215999223292,-0.0154200978577,0.0326918512583,0.0252780076116,0.0517274923623,-0.0663119256496,-0.040627848357,0.0445508919656,0.0318043641746,-0.00500819412991,-0.0172256249934,0.0348727479577,0.0106520894915,-0.0748671218753,0.00292868283577,-0.0174094773829,0.0534068644047,-0.0480172224343,0.0475671328604,0.00234712241217,-0.0285470690578,0.00737521750852,-0.0525889471173,0.0194289740175,-0.0956158488989,-0.0455470606685,0.068106085062,0.0559204742312,0.0981360077858,0.072388663888,0.0450381077826,0.0762055441737,0.0439025647938,0.0259916689247,0.0130314361304,0.000900028157048,-0.0638561695814,-0.0142793459818,0.00319607648998,-0.0222476348281,0.0136406961828,0.0423065237701,-0.0559644773602,-0.0134600736201,-0.0926608070731,0.0661138296127,0.0794690027833,-0.00292370538227,0.108958154917,-5.76929560339e-05,-0.0490779690444,-0.0343844480813,0.0364379882812,0.0437779352069,-0.115897662938,0.0486541390419,0.0152913248166,0.0593921616673,-0.00595675595105,-0.00115679320879,-0.047829426825,-0.0493954978883,0.0118274269626,-0.0519782267511,0.114772804081,-0.021399717778,-0.0806362479925,-0.0283255241811,0.108755975962,0.0161104872823,-0.02025590837,-0.034054659307,0.065271422267,-0.0421942919493,-0.057538729161,-0.0703455358744,-0.0515381097794,0.0750395283103,0.0248975735158,-0.0263771153986,0.0367267914116,0.0258939228952,-0.108919240534,0.0336708053946,0.0238496474922,0.0884252116084,-0.00751072401181,-0.0285180211067,-0.0350683704019,0.0603265054524,-0.0633838027716,0.0248465798795,-0.0361875109375,0.0437783747911,-0.00909646879882,-0.0402326509356,-0.0328340344131,0.140435084701,0.0221039429307,-0.0581910423934,0.100996874273,-0.0238383226097,0.0274048577994,-0.114780694246,-0.00940753426403,0.0594853870571,0.120448276401,0.0264583677053,-0.0290856640786,0.151162832975,0.0140317734331,-0.0468342900276
吗	0.0311045907438,-0.0632670074701,0.0112601462752,-0.0130173731595,-0.0518792383373,-0.0364823900163,0.000396146147978,-0.0697016194463,-0.0456102304161,0.0908300429583,-0.0405822135508,0.161443471909,-0.0954128578305,-0.0709671378136,-0.0809462890029,0.0326085314155,0.0369598716497,-0.043096370995,0.00147450435907,-0.0378452390432,-0.090753287077,0.0205115042627,0.0138206407428,-0.118585862219,0.0405349545181,-0.0568243078887,0.00710945017636,0.100232735276,0.000988029059954,-0.00458110077307,0.0298785958439,-0.0110297147185,-0.0127977300435,-0.0117137450725,0.0089549953118,-0.0222798530012,0.0433357954025,-0.0845183283091,0.139546886086,-0.0393623225391,-0.000788590405136,-0.0264274496585,-0.094233058393,-0.038139782846,0.0415595732629,-0.0184136517346,-0.0443029291928,-0.000479161361,0.0024263386149,-0.0753099471331,0.0482704564929,-0.00238380092196,0.00517997704446,0.00602566404268,0.0136741166934,0.0200888365507,-0.0655568093061,0.0901324078441,-0.0026792769786,-0.0591403581202,-0.0589114837348,0.0695302337408,-0.0536171346903,-0.0620901286602,0.0448781959713,0.0894637852907,-0.0247294679284,-0.025317395106,-0.00927464477718,0.107084974647,0.0581130571663,-0.0505386851728,0.0517583265901,-0.0898670107126,-0.084096968174,0.0320634022355,-0.0540158376098,-0.0164497289807,-0.053583227098,-0.0521045848727,0.080638743937,0.0929703712463,0.0138320969418,0.022717570886,0.0611689463258,-0.032054848969,0.0144828269258,0.038063865155,0.0869854688644,0.0564867220819,-0.0373621247709,0.0808994546533,-0.00819868501276,0.0406121201813,0.0468261130154,0.0269958693534,0.0225198175758,-0.00129068235401,0.0251017604023,-0.0468143187463,-0.0329075306654,0.0296812746674,-0.041065055877,-0.131304651499,0.0417367182672,0.0533369258046,-0.091664776206,0.0484496243298,0.0445891320705,0.056233856827,0.0819838494062,0.0430186465383,-0.0022522774525,-0.0648806840181,0.0120135964826,0.0678981691599,-0.0361446291208,0.081820987165,-0.001588378218,0.0106069613248,0.0720411241055,-0.0175359807909,-0.0259883645922,-0.0502297207713,0.0167615767568,-0.0546841844916,-0.0624808296561,-0.0289417225868,0.151458859444,0.0519206374884,2.57856136159e-05,0.0175945851952,-0.0796844214201,0.0856636092067,-0.10065895319,0.0245455242693,0.00058317091316,0.0661863461137,-0.016264455393,0.0213702041656,-0.0836705490947,0.141987845302,0.0509194880724,-0.0949020460248,0.0367399118841,-0.00489502213895,0.0693614557385,0.0733320266008,-0.135397568345,-0.0795123353601,-0.000693392939866,0.00147369306069,-0.0211797729135,0.0446670763195,0.0278610400856,-0.0185248404741,0.0340318195522,-0.0391667485237,-0.0194907579571,-0.0952513068914,0.0980213358998,-0.112054117024,0.0667933151126,0.0700385048985,0.0095642330125,-0.0266872942448,-0.0768576487899,-0.0260908547789,0.0430947802961,-0.0856879279017,0.0504230633378,0.0560904070735,0.0353217497468,-0.0428371503949,-0.096505753696,0.103487916291,-0.0710049122572,-0.0520698390901,-0.0370478108525,-0.0674197301269,-0.0531789585948,-0.124354727566,0.00637283595279,-0.0839666351676,-0.0285976510495,0.00481841387227,-0.00522327795625,-0.0162770971656,0.0218446515501,-0.0165437608957,0.0345556847751,0.0266167409718,0.0525015816092,-0.0654678270221,-0.0406064763665,0.0443759784102,0.0313254445791,-0.00457678455859,-0.0159776750952,0.0350490659475,0.0110960984603,-0.0730194374919,0.00333666219376,-0.0178793687373,0.0542517527938,-0.0484747365117,0.0471155494452,0.00379028986208,-0.0273469053209,0.00819255318493,-0.0522520430386,0.019354287535,-0.0967882573605,-0.0460142120719,0.068836890161,0.0547621138394,0.0984701141715,0.0724204555154,0.0455087833107,0.0769789889455,0.042407464236,0.0256471727043,0.0126729598269,-0.000566170841921,-0.0651829838753,-0.0146275376901,0.00334103428759,-0.022315826267,0.0142740728334,0.0437492914498,-0.0553219020367,-0.0124149620533,-0.0959333330393,0.0662997812033,0.0776174366474,-0.0024818291422,0.110783554614,-5.14273706358e-05,-0.0497685372829,-0.0343865081668,0.0353156924248,0.0418314598501,-0.114704683423,0.0472694039345,0.0134684434161,0.0587116889656,-0.00661234557629,-0.00185361132026,-0.0453446395695,-0.0496041961014,0.0131409056485,-0.051788456738,0.115453705192,-0.0210375338793,-0.0805895924568,-0.0277891457081,0.109032176435,0.0163198318332,-0.0198434777558,-0.0340976938605,0.0667840316892,-0.0431566871703,-0.0565434135497,-0.0697040632367,-0.0515914484859,0.0730534270406,0.0235667936504,-0.0265146493912,0.0360154919326,0.0254563186318,-0.10757111758,0.0320433601737,0.0215264614671,0.0875204727054,-0.00765864271671,-0.0298149250448,-0.0334046892822,0.0618993230164,-0.0639478564262,0.0255904942751,-0.0364586003125,0.0436362065375,-0.00993310753256,-0.0408269092441,-0.0319906659424,0.140951558948,0.0223424006253,-0.0587333664298,0.100149862468,-0.0240165609866,0.0279053524137,-0.115291953087,-0.0104839652777,0.0608226060867,0.120708212256,0.0249933972955,-0.0271148290485,0.151631325483,0.0125101115555,-0.0482013262808
什么	0.0297446381301,-0.0610302463174,0.0109055619687,-0.0143366800621,-0.0521361604333,-0.0338171422482,0.00505925389007,-0.0682133436203,-0.0444257706404,0.0923120453954,-0.0423993207514,0.161695599556,-0.0978960394859,-0.0679417327046,-0.0805994272232,0.0336046665907,0.0358024053276,-0.0426355749369,0.00357761234045,-0.0363056063652,-0.0926196947694,0.0184935256839,0.015270140022,-0.120271705091,0.0410552732646,-0.0564172267914,0.00879946257919,0.0995617881417,0.00317542837001,-0.00407406827435,0.0298653226346,-0.0136966817081,-0.0142317861319,-0.0106960088015,0.00951274763793,-0.0217104982585,0.0448341779411,-0.0857360363007,0.139456868172,-0.0396570488811,-8.97301506484e-05,-0.0272785220295,-0.0932259187102,-0.0362662300467,0.0448064543307,-0.0207431651652,-0.0471400991082,0.000724098295905,0.00362930470146,-0.0730584859848,0.0501499585807,-0.00384757271968,0.00445976434276,0.00413624290377,0.0165302548558,0.0205644574016,-0.062532313168,0.0875337645411,-0.00352203752846,-0.0594462305307,-0.0586850196123,0.0667155459523,-0.0565087534487,-0.0592878423631,0.0429331921041,0.0885118991137,-0.0222510620952,-0.028784500435,-0.0104994168505,0.106836497784,0.0591370761395,-0.0476874038577,0.0525769777596,-0.0878359526396,-0.0804644450545,0.0318078026175,-0.0561683438718,-0.0155932139605,-0.054809756577,-0.0544343478978,0.0806774273515,0.0932406559587,0.0157595146447,0.0231998432428,0.0620482414961,-0.0291459821165,0.0130996117368,0.040334071964,0.0877360254526,0.0572696775198,-0.0385313294828,0.0785811021924,-0.00463792169467,0.0374273099005,0.046738114208,0.0274335239083,0.0224490985274,-0.00361553649418,0.0281171910465,-0.0488416329026,-0.0312802940607,0.0302910823375,-0.0409388318658,-0.131963446736,0.0419106781483,0.0499145947397,-0.0913936495781,0.0457776635885,0.0433513522148,0.0582578107715,0.0836764574051,0.0427998825908,0.000157266142196,-0.0664933174849,0.0147539060563,0.0706103295088,-0.0362722538412,0.0821288451552,-0.00259409635328,0.0131231751293,0.070963986218,-0.0165606345981,-0.0239594094455,-0.0511370152235,0.0186376795173,-0.0552052594721,-0.062838062644,-0.0247605927289,0.151878774166,0.0519751645625,0.00106135569513,0.0176320765167,-0.079887419939,0.0870117545128,-0.09813875705,0.0220003370196,0.00271243066527,0.0673754066229,-0.014625877142,0.0194171536714,-0.0809144377708,0.141705706716,0.0480895973742,-0.0926859304309,0.036207024008,-0.00300978031009,0.0716964527965,0.0734899863601,-0.13214482367,-0.0779266729951,0.00204841466621,0.000798863649834,-0.0204247161746,0.0463644526899,0.0280148498714,-0.0177868958563,0.03497781232,-0.0365729220212,-0.0170253682882,-0.0952554345131,0.0976827293634,-0.109345249832,0.0674701631069,0.073462061584,0.0102168628946,-0.0263856723905,-0.076459556818,-0.0264650098979,0.0451986044645,-0.0857284292579,0.0500881299376,0.0559555776417,0.0360003001988,-0.0433657765388,-0.0949228331447,0.10488037765,-0.0721853896976,-0.0514969527721,-0.0350983701646,-0.0696078762412,-0.0529092885554,-0.12601852417,0.00425349501893,-0.0837976336479,-0.0274909231812,0.00478812027723,-0.00689151091501,-0.0146858626977,0.0206478629261,-0.0193415991962,0.0362548604608,0.0275994725525,0.0535107068717,-0.0688220858574,-0.0433607622981,0.0471331141889,0.0327418223023,-0.00684319855645,-0.0178968738765,0.0369729846716,0.00889621023089,-0.0768123716116,0.00387540576048,-0.0173160657287,0.0549253746867,-0.0507380031049,0.0439251363277,0.00599086144939,-0.0243409182876,0.00780182378367,-0.0538847707212,0.0165873542428,-0.0969600975513,-0.047507494688,0.0707844048738,0.0557242147624,0.0970574021339,0.0713199824095,0.0432942025363,0.0772945210338,0.0411851219833,0.0237645469606,0.0136474724859,0.000961518322583,-0.0673725754023,-0.0122055634856,0.00295166228898,-0.02455037646,0.0127721400931,0.0456498451531,-0.0571629032493,-0.0103849144652,-0.0956097692251,0.0659182146192,0.0775042846799,-0.00487999105826,0.110391162336,0.00142088381108,-0.052525985986,-0.0345139801502,0.0353497005999,0.0422732047737,-0.116930305958,0.046131297946,0.0113381063566,0.0602177493274,-0.00981528684497,0.000399387790821,-0.0482300147414,-0.0486839152873,0.0173266194761,-0.0499845407903,0.115588627756,-0.0188849177212,-0.0780846625566,-0.029584703967,0.110022455454,0.0167395211756,-0.0211561936885,-0.0344508290291,0.069420941174,-0.0407327339053,-0.0546544417739,-0.0668960288167,-0.0498036295176,0.0718363597989,0.0256942603737,-0.0254573244601,0.0372793786228,0.0254332870245,-0.106855496764,0.0330336168408,0.0214468557388,0.085612423718,-0.00648235250264,-0.0323475450277,-0.0320839323103,0.0615294761956,-0.0618100650609,0.0257497746497,-0.0336211211979,0.0430516712368,-0.0150441844016,-0.0399841293693,-0.0314511023462,0.139844954014,0.0199050661176,-0.0597387738526,0.101679377258,-0.0254702419043,0.029203908518,-0.113314211369,-0.00849883444607,0.0637257695198,0.122009180486,0.0238423738629,-0.0285403449088,0.151462689042,0.0145999966189,-0.0501629337668
知道	0.0306390449405,-0.0621338821948,0.0104084582999,-0.0143342558295,-0.0507849641144,-0.0343648605049,0.00369167607278,-0.0718550980091,-0.0469205603004,0.0907013788819,-0.0408946871758,0.162739828229,-0.0914488434792,-0.0708763450384,-0.0764544084668,0.0336041077971,0.0372332185507,-0.0397105924785,0.00107010558713,-0.0384342670441,-0.093378059566,0.0185166355222,0.0131698995829,-0.118598081172,0.0407561846077,-0.0563625656068,0.00575388828292,0.0978827178478,0.00250913645141,-0.00465686293319,0.0294550433755,-0.00889508239925,-0.012933655642,-0.0101351859048,0.00793411396444,-0.0180268660188,0.0445075333118,-0.0828541517258,0.14093349874,-0.0397994741797,0.000335997174261,-0.027755824849,-0.094640687108,-0.0390194691718,0.0447786450386,-0.020925372839,-0.0451819524169,-0.00181018130388,0.00378597108647,-0.0757821202278,0.0478061586618,-0.00129864201881,0.00629178714007,0.00620790570974,0.0113724600524,0.0202278234065,-0.0636770278215,0.0930175483227,-0.00109840766527,-0.0632525384426,-0.0590243600309,0.0666074827313,-0.0525587312877,-0.0617996230721,0.0445720590651,0.0881201475859,-0.0267391148955,-0.0253996290267,-0.00731546292081,0.106389127672,0.0562035180628,-0.0515935085714,0.0506699346006,-0.0914313346148,-0.0811867937446,0.0359698012471,-0.0571414902806,-0.0177555475384,-0.053934391588,-0.0507843121886,0.0803917199373,0.0905531793833,0.0159572102129,0.0222212579101,0.0610460005701,-0.0333125926554,0.014486127533,0.0386372096837,0.0886645838618,0.0607159100473,-0.0371820889413,0.0790750905871,-0.00691357254982,0.0441640876234,0.0475261881948,0.0247931051999,0.024356957525,-0.00121085392311,0.0267271008343,-0.0459703058004,-0.030252283439,0.0305890291929,-0.0406512506306,-0.130689844489,0.0413482747972,0.0518199279904,-0.0877305194736,0.0496757924557,0.045505207032,0.0551998987794,0.0819409564137,0.0418349094689,-0.00389204383828,-0.0661338567734,0.0137641392648,0.067556373775,-0.0375290438533,0.0803196579218,-0.000426506361691,0.0136010749266,0.0745249316096,-0.0204655285925,-0.022218387574,-0.0511631406844,0.0167510323226,-0.0561112016439,-0.0641051530838,-0.0311229154468,0.152406439185,0.0531730055809,-0.00160733365919,0.0172739699483,-0.0796416625381,0.0835804343224,-0.101959601045,0.0220489241183,0.000575684185605,0.0692308098078,-0.0142558282241,0.0201100241393,-0.0824526026845,0.143091753125,0.0514747649431,-0.0961396619678,0.0393224917352,-0.00301764253527,0.0686323717237,0.0698411017656,-0.133478239179,-0.0770155116916,0.00332853128202,-0.000324691587593,-0.0243301689625,0.0422127060592,0.0297387372702,-0.0175916999578,0.0345533676445,-0.0405535101891,-0.0184096544981,-0.0939678922296,0.098588258028,-0.11079865694,0.0660738348961,0.0703504607081,0.00869233906269,-0.0251162480563,-0.0799719169736,-0.0243725478649,0.0424955524504,-0.0838209092617,0.0520089007914,0.0577234216034,0.0370860211551,-0.0450759120286,-0.0995189473033,0.098339214921,-0.0690482333302,-0.0545514076948,-0.0373985134065,-0.0659582093358,-0.054913315922,-0.127866789699,0.00778558058664,-0.08219768852,-0.0280292183161,0.00454771425575,-0.00553911784664,-0.0163378175348,0.0199150443077,-0.0169370062649,0.0337218306959,0.027575802058,0.0539338588715,-0.0659788772464,-0.041546124965,0.0444749668241,0.0329490937293,-0.00353828701191,-0.0145256808028,0.0365775115788,0.010916092433,-0.0705276429653,0.00515316519886,-0.0181820522994,0.0553964935243,-0.0513732619584,0.0456030517817,0.00695253768936,-0.0263071246445,0.00656743627042,-0.0509272888303,0.020151078701,-0.098138384521,-0.0462315455079,0.0669387057424,0.0558666996658,0.0971956029534,0.072104640305,0.0454951785505,0.0727733299136,0.0415735989809,0.0274748466909,0.0132987089455,-0.000572413904592,-0.0650984048843,-0.0153540503234,0.00287040928379,-0.0204968713224,0.0169716607779,0.0418634973466,-0.0532516017556,-0.0102403499186,-0.0945780798793,0.0671619921923,0.0786675736308,-0.00492696976289,0.109206259251,0.00344155053608,-0.0510479956865,-0.03247846663,0.0343786329031,0.0417502373457,-0.112734422088,0.042396325618,0.01279117167,0.0575736127794,-0.00502375978976,-0.00300416816026,-0.0432672835886,-0.049097917974,0.0104852030054,-0.0560498461127,0.116886541247,-0.0233525056392,-0.0804130733013,-0.027729311958,0.108340539038,0.0178646165878,-0.0193051360548,-0.0343128815293,0.0667556449771,-0.04645960778,-0.0552534908056,-0.071695022285,-0.0543648228049,0.0757785439491,0.0253972206265,-0.0271529015154,0.0388947427273,0.0257442332804,-0.106948554516,0.0309878345579,0.0193512476981,0.0877974331379,-0.0106074986979,-0.0285482313484,-0.0350251831114,0.0609729215503,-0.0641397535801,0.0261707510799,-0.0370206907392,0.0466897897422,-0.0116886897013,-0.0402846634388,-0.0307621043175,0.141541942954,0.0206335354596,-0.0598039366305,0.100251071155,-0.0254259854555,0.0278813801706,-0.112922340631,-0.00896415114403,0.0629085302353,0.122185923159,0.0266266949475,-0.0270195137709,0.152721166611,0.0111825438216,-0.048845462501
不	0.0302958078682,-0.06211444363,0.00996102113277,-0.012760383077,-0.0500473901629,-0.0353703461587,0.00243151723407,-0.0693710446358,-0.0470247380435,0.0926020741463,-0.0401825904846,0.162156239152,-0.0934215337038,-0.0714675113559,-0.0794875472784,0.0341320484877,0.0370321795344,-0.0428801774979,-0.000462236028397,-0.0386764928699,-0.0905424505472,0.0190296210349,0.0126361232251,-0.119358800352,0.0412921719253,-0.0577992983162,0.00734139978886,0.0985273495317,0.00110948539805,-0.00517173670232,0.0300233066082,-0.00860302150249,-0.0107555119321,-0.0111282644793,0.00953890942037,-0.0201000217348,0.0443331673741,-0.0835820510983,0.140025913715,-0.0409399569035,-0.00159376347438,-0.0270779114217,-0.0930267423391,-0.0390510857105,0.041603885591,-0.019886571914,-0.0451137460768,-0.000859096646309,0.000747418671381,-0.0759974941611,0.0472585894167,-0.00281021441333,0.0050805574283,0.0057290061377,0.0139435455203,0.0185712352395,-0.0654272288084,0.0928274020553,-0.0022526064422,-0.0611100383103,-0.0580807179213,0.0690195187926,-0.0527537614107,-0.0633371323347,0.0454889424145,0.0889128819108,-0.0254647918046,-0.0251477211714,-0.008225671947,0.105031363666,0.055022533983,-0.0501950643957,0.0512635074556,-0.0899664610624,-0.0842302888632,0.0344662219286,-0.053620647639,-0.0153629323468,-0.0535488799214,-0.0509166717529,0.0802606791258,0.0910700112581,0.0152886705473,0.0223985686898,0.0602136552334,-0.033691175282,0.0151928067207,0.0380429625511,0.087766751647,0.0592752583325,-0.037475720048,0.0800690054893,-0.00790990330279,0.0427510179579,0.0470182523131,0.0255337692797,0.0229917764664,-0.00177472329233,0.0248306039721,-0.0470317155123,-0.0323197878897,0.0287055410445,-0.0422572828829,-0.131711348891,0.0416510291398,0.0532048381865,-0.0901046693325,0.0491491109133,0.0468472577631,0.05511899665,0.0822982937098,0.0414455160499,-0.00319763505831,-0.0663679838181,0.0121067082509,0.0669650733471,-0.0364409647882,0.081884264946,-0.00142987794243,0.0105019081384,0.0734169408679,-0.0183448009193,-0.0254732910544,-0.0501787625253,0.0164617039263,-0.0538255944848,-0.0632118880749,-0.0293449275196,0.151031598449,0.0534494370222,-0.000653716095258,0.0177055671811,-0.0787639245391,0.0831242203712,-0.099614828825,0.024665189907,-0.00195455807261,0.0674030855298,-0.0145136872306,0.0215582828969,-0.0840514227748,0.142252847552,0.0514296591282,-0.0966325253248,0.0379999503493,-0.00359238730744,0.0682574883103,0.0718716979027,-0.134322226048,-0.0772004723549,0.00171113957185,0.0019877590239,-0.0229571126401,0.0441311262548,0.0269383322448,-0.01764754951,0.0355804152787,-0.0396492518485,-0.0194352120161,-0.0939553976059,0.0997192040086,-0.112646900117,0.0673014521599,0.0704979151487,0.00915755797178,-0.025411831215,-0.0772843360901,-0.0255900342017,0.0430787801743,-0.0848420262337,0.0512694939971,0.0556744374335,0.0350461639464,-0.0452390424907,-0.0991561338305,0.100683070719,-0.0706890374422,-0.0541928224266,-0.036786403507,-0.0667112097144,-0.0543291755021,-0.126736834645,0.00597465643659,-0.084644138813,-0.0285400990397,0.00386318820529,-0.00334529834799,-0.0174614395946,0.021462764591,-0.0169646907598,0.0341318063438,0.0257107019424,0.0533824563026,-0.0652417168021,-0.0426085107028,0.0456587187946,0.0319868884981,-0.00311095011421,-0.0150506738573,0.035311229527,0.0118562057614,-0.0721716433764,0.00290875509381,-0.019376154989,0.0526160933077,-0.0497228838503,0.0466513074934,0.00571991782635,-0.027716467157,0.00713792582974,-0.0504677593708,0.0184027887881,-0.0972763299942,-0.0466912090778,0.0682031735778,0.0553323067725,0.0966202393174,0.0732853412628,0.0471095554531,0.0754859223962,0.0423665083945,0.0279861465096,0.0122973611578,-0.00117071438581,-0.0642785802484,-0.0139395436272,0.00384961348027,-0.0204377938062,0.0151564767584,0.044014416635,-0.0538527406752,-0.0118897520006,-0.0953560620546,0.06525811553,0.0770715326071,-0.0033130152151,0.110598780215,-4.91119044455e-06,-0.0506717339158,-0.033862195909,0.0343668088317,0.0430484078825,-0.117430187762,0.0460824817419,0.0144160836935,0.0588004738092,-0.00588142406195,-0.00234407978132,-0.045605160296,-0.0480234399438,0.0127265127376,-0.0536528974771,0.115129329264,-0.0233361683786,-0.080809533596,-0.0288998764008,0.109365664423,0.0161684062332,-0.0199280045927,-0.0328061394393,0.0668591409922,-0.0453124120831,-0.0549756772816,-0.0697103887796,-0.0517122521996,0.0742431730032,0.0238752085716,-0.0272607691586,0.0378468185663,0.0262748915702,-0.107542566955,0.0324569158256,0.0218833908439,0.0874770507216,-0.0102265635505,-0.0289391614497,-0.0336324982345,0.0612008497119,-0.0628218278289,0.0251805111766,-0.0372324772179,0.0461550988257,-0.00846602302045,-0.0404728911817,-0.0319118797779,0.139907464385,0.0225942898542,-0.0585314296186,0.0997576713562,-0.0242881458253,0.0267707053572,-0.114557094872,-0.0108718853444,0.0605292879045,0.120210394263,0.026850303635,-0.0280448049307,0.152067944407,0.0124222515151,-0.0492692366242
好	0.0326356105506,-0.0650098696351,0.00857309252024,-0.0125455344096,-0.0510921515524,-0.034715835005,-0.000918560603168,-0.071148224175,-0.049107581377,0.0912991389632,-0.0393527150154,0.159054681659,-0.0983396247029,-0.0692344158888,-0.0798562318087,0.0320283509791,0.0354403555393,-0.0437070541084,0.00310922344215,-0.0363400094211,-0.0882366970181,0.0180352590978,0.0130249382928,-0.120270244777,0.0394987501204,-0.0608605220914,0.00633817957714,0.102420166135,4.20324140578e-05,-0.00206694216467,0.028302455321,-0.0112717514858,-0.014151613228,-0.0114524103701,0.00987768359482,-0.0215858500451,0.0460442900658,-0.0858801528811,0.138217031956,-0.0403911136091,-0.00133877177723,-0.0286626201123,-0.0918565765023,-0.035297844559,0.0423884950578,-0.0186720546335,-0.0493314675987,-0.000954530551098,0.00183087796904,-0.0744425058365,0.0498438477516,-0.00479822978377,0.00391547894105,0.00660365214571,0.0148536199704,0.0194184221327,-0.0620030388236,0.091571457684,-0.00169322208967,-0.0623066946864,-0.0569403022528,0.067880935967,-0.0567516721785,-0.0618745945394,0.0436418876052,0.0901704654098,-0.0253781210631,-0.0259790830314,-0.00811798404902,0.105861991644,0.0564211979508,-0.0516807213426,0.0533068552613,-0.0897262394428,-0.0839411765337,0.03526064381,-0.0532196685672,-0.0150306066498,-0.0541588142514,-0.0520031936467,0.0818717852235,0.0924372971058,0.0153962001204,0.0235067736357,0.0604362748563,-0.0321844257414,0.0140963820741,0.0381717085838,0.0855152383447,0.0564881674945,-0.0363012254238,0.0835402980447,-0.00630524428561,0.0418432801962,0.0457115992904,0.026847878471,0.0231292694807,-0.00119805778377,0.0276239123195,-0.046400565654,-0.0324582457542,0.0282352417707,-0.0415831506252,-0.130857273936,0.0398860312998,0.0513924770057,-0.0917443335056,0.0496347844601,0.0440746732056,0.0552318580449,0.0824175551534,0.0437757708132,-0.00343205197714,-0.0646264851093,0.0124248629436,0.0673320442438,-0.0351454280317,0.0834243670106,-0.00169846008066,0.00879289396107,0.0736167579889,-0.0189129076898,-0.0253913532943,-0.0487159267068,0.0180987641215,-0.0551368556917,-0.0652356594801,-0.0268458724022,0.154424101114,0.0504488423467,-0.00192221824545,0.0178143568337,-0.0785760954022,0.0838472172618,-0.100680686533,0.0244677253067,0.00147965061478,0.0690592229366,-0.0187412314117,0.0237332992256,-0.0844710469246,0.141640454531,0.05142326653,-0.0923432931304,0.0354965217412,-0.00479250727221,0.0720219537616,0.0755217000842,-0.134564071894,-0.0794084593654,-9.16235439945e-05,0.000723944569472,-0.0230416581035,0.0447196550667,0.0283741559833,-0.0181056894362,0.0347795039415,-0.0408938378096,-0.0193296149373,-0.0932536944747,0.0981594845653,-0.111575201154,0.0670489519835,0.0713419541717,0.00985044520348,-0.0289054308087,-0.0759833529592,-0.0252344366163,0.0439276583493,-0.0862131789327,0.0498407818377,0.0573947764933,0.0371359474957,-0.0445639379323,-0.0976543053985,0.101477004588,-0.070041924715,-0.0532778389752,-0.0346331521869,-0.0677518546581,-0.0524562671781,-0.123214475811,0.00551562337205,-0.0849079564214,-0.0284057669342,0.00415033195168,-0.00334716029465,-0.0156738758087,0.0203327722847,-0.0146130770445,0.0347411930561,0.0275130923837,0.0519115701318,-0.0665688887239,-0.0412532910705,0.0473081991076,0.0329161547124,-0.00342837884091,-0.0180663261563,0.035441506654,0.0111702671275,-0.0731472596526,0.00291564082727,-0.0193303506821,0.0523144565523,-0.0505568385124,0.0475330464542,0.00520399725065,-0.0282922554761,0.00755538558587,-0.0520705170929,0.0201944801956,-0.097296141088,-0.0467914193869,0.0695337802172,0.0543634258211,0.0992620587349,0.0708177238703,0.0471121817827,0.0792095586658,0.0404861792922,0.025905335322,0.0144576923922,-0.00262170168571,-0.0657720714808,-0.016004934907,0.00320968218148,-0.0227667056024,0.012505046092,0.0412989705801,-0.0551123507321,-0.0143146272749,-0.0935261398554,0.067547403276,0.0783116146922,0.000465414253995,0.107837639749,-0.000204148280318,-0.0512672662735,-0.0349173471332,0.0335996933281,0.0394482836127,-0.110260330141,0.0454201959074,0.0158580318093,0.0577876977623,-0.00566585408524,-0.00354252918623,-0.0464499406517,-0.0470980405807,0.015441197902,-0.0533530935645,0.114305995405,-0.0191345959902,-0.0801671668887,-0.0275024846196,0.108060494065,0.0154363177717,-0.018991574645,-0.0351926758885,0.0641678273678,-0.0449992418289,-0.0545384027064,-0.0701383799314,-0.0507612377405,0.0759377926588,0.0240205191076,-0.026299379766,0.0353621989489,0.0250829625875,-0.107643969357,0.034927342087,0.0227904058993,0.0889975726604,-0.00609719520435,-0.0280279498547,-0.0346821472049,0.0613723956048,-0.0628048554063,0.0240567475557,-0.0374692641199,0.0432051084936,-0.00964754167944,-0.0384170338511,-0.0299010425806,0.139300733805,0.0211924239993,-0.059013299644,0.0983639359474,-0.0240830760449,0.0280750803649,-0.115146584809,-0.00896282400936,0.0595280788839,0.121542461216,0.025577776134,-0.0276016369462,0.153018534184,0.0115333376452,-0.0510760098696
要	0.0304325558245,-0.0638526827097,0.00996171683073,-0.0134471235797,-0.0519751310349,-0.034643497318,0.00159556523431,-0.070230178535,-0.046915538609,0.09160002321,-0.0399643480778,0.161801412702,-0.094966545701,-0.0708901211619,-0.0795332565904,0.0333862863481,0.0366959683597,-0.0421757996082,-0.000534335442353,-0.0384231470525,-0.0893783271313,0.019971139729,0.0119306938723,-0.117585904896,0.0416277684271,-0.0564608760178,0.00821272935718,0.0982707291842,0.00216200854629,-0.00514282053337,0.0303548146039,-0.0089821908623,-0.0128212263808,-0.0118099749088,0.00992959551513,-0.0208665877581,0.0443824678659,-0.0840655639768,0.139806762338,-0.0405581146479,-9.04557164176e-05,-0.0274804327637,-0.0935479924083,-0.0372317247093,0.0411054939032,-0.0200499240309,-0.046116579324,-0.00110512436368,0.000874914345331,-0.0756700262427,0.0477805584669,-0.00231283134781,0.00520315626636,0.0061485087499,0.012809118256,0.0190791469067,-0.0655692964792,0.091690339148,-0.00174413085915,-0.0604394041002,-0.057673484087,0.0682446062565,-0.0541171878576,-0.0626964047551,0.0457551814616,0.0892919301987,-0.026285443455,-0.0252183098346,-0.00866313092411,0.106747694314,0.0557366088033,-0.0496635437012,0.051782105118,-0.089980147779,-0.0838057473302,0.0348116122186,-0.0548294894397,-0.0152527196333,-0.0539958961308,-0.0517781600356,0.0803071781993,0.0928668230772,0.0130267525092,0.0227055568248,0.060049097985,-0.0323026664555,0.015429481864,0.0386821478605,0.0868777856231,0.0585890300572,-0.0388053841889,0.081325724721,-0.00679796561599,0.0411968454719,0.048800855875,0.026873908937,0.0243646856397,-0.0013367224019,0.0256089698523,-0.0474385544658,-0.0327269658446,0.0285624694079,-0.0422469899058,-0.132301226258,0.0408678613603,0.0511636100709,-0.0910343751311,0.0489396899939,0.045898810029,0.0553552024066,0.0829797461629,0.041571393609,-0.00250040460378,-0.065048597753,0.0127131976187,0.0679572448134,-0.0364920459688,0.0817285403609,-0.00159041665029,0.0100988559425,0.0730469748378,-0.0198373850435,-0.0257425475866,-0.0500154793262,0.0183883812279,-0.0545979402959,-0.0644789412618,-0.0291004199535,0.1522115767,0.0532540343702,0.000567664974369,0.018552750349,-0.0791340693831,0.0838102996349,-0.0996167883277,0.023603303358,-0.00125034991652,0.066573150456,-0.0162765793502,0.0201154761016,-0.0838954150677,0.142026647925,0.0499502196908,-0.095311537385,0.0370690599084,-0.00390337593853,0.0689328759909,0.0734638795257,-0.13454221189,-0.0784527435899,0.000953129841946,0.000939598656259,-0.02231551148,0.0433361418545,0.028512140736,-0.0188184436411,0.0360517278314,-0.0397257618606,-0.0182587523013,-0.0958539918065,0.099274598062,-0.112376585603,0.0658859238029,0.0714096948504,0.0089168259874,-0.0254790689796,-0.0777715072036,-0.0243848599494,0.0432294234633,-0.0849524959922,0.0498429760337,0.0560294501483,0.0363263897598,-0.0445895045996,-0.0979407280684,0.102027244866,-0.0692676007748,-0.0517836362123,-0.0355292186141,-0.0667725652456,-0.0544424429536,-0.126550585032,0.00682576512918,-0.0823499336839,-0.0267378669232,0.00242617027834,-0.00301902345382,-0.0173182804137,0.0208708252758,-0.0174598824233,0.0340093709528,0.0253274776042,0.0534174107015,-0.0661258399487,-0.0411619432271,0.0451980382204,0.0310203693807,-0.002400418045,-0.0142013262957,0.0360396169126,0.0112027805299,-0.0721244215965,0.00262562418357,-0.0176864042878,0.0518923141062,-0.0495729111135,0.0474579036236,0.00513445492834,-0.0272984355688,0.0080581298098,-0.0506611019373,0.018145756796,-0.0965267047286,-0.0456737577915,0.0693470314145,0.0549060851336,0.0982343405485,0.0730064734817,0.0462823808193,0.0752086490393,0.0423057153821,0.0269051864743,0.0122940838337,-0.00101862160955,-0.0635693222284,-0.0137298628688,0.00315823825076,-0.0215284805745,0.0145173929632,0.0440334752202,-0.0558919124305,-0.0115039190277,-0.0936344116926,0.0658097043633,0.0787026062608,-0.00332258013077,0.10939797014,6.17524710833e-05,-0.0502550490201,-0.0334640406072,0.0353050865233,0.0442612841725,-0.117080755532,0.0470912121236,0.0138252601027,0.0590292811394,-0.00766153354198,-0.00141276675276,-0.0464485287666,-0.0496355034411,0.0138489734381,-0.0538565739989,0.115626193583,-0.0210856199265,-0.0794932469726,-0.0282573401928,0.107364006341,0.0164982099086,-0.0193965211511,-0.0337329134345,0.0654171481729,-0.0440002419055,-0.0558133870363,-0.069140471518,-0.0512680001557,0.074924826622,0.0244184881449,-0.0268382616341,0.0367120392621,0.0259781703353,-0.107939429581,0.0324349477887,0.0229586213827,0.0879038497806,-0.00847071781754,-0.0287044700235,-0.0342677757144,0.0617639608681,-0.0623685121536,0.025803592056,-0.0353654287755,0.0447207093239,-0.00890421122313,-0.0399718806148,-0.0314716845751,0.140898734331,0.0214840359986,-0.0587278865278,0.099339261651,-0.0243246275932,0.0279030837119,-0.114624321461,-0.00939414650202,0.0594945177436,0.121575795114,0.0261615216732,-0.0282644536346,0.152324274182,0.0128165427595,-0.049608875066
有	0.0305460970849,-0.0636589080095,0.00913593918085,-0.0124320657924,-0.0508194155991,-0.0351441204548,0.00143344281241,-0.0693673416972,-0.0454305224121,0.0921754986048,-0.0399085618556,0.159828186035,-0.0953732132912,-0.0703221410513,-0.0807722881436,0.0330741889775,0.0365905016661,-0.0417967326939,0.00155043392442,-0.0366564393044,-0.0893869325519,0.0197144672275,0.0129070915282,-0.119322814047,0.0414232835174,-0.0575125254691,0.00746396975592,0.0996348559856,0.00241013127379,-0.00288646388799,0.0305214915425,-0.00986933615059,-0.0123949274421,-0.011450686492,0.00969253201038,-0.0230700280517,0.0439448431134,-0.0847288444638,0.13940705359,-0.0394926220179,0.00040312029887,-0.0270454827696,-0.0937481224537,-0.0367827117443,0.0423781648278,-0.0193124711514,-0.0457349158823,-0.00116255041212,0.00140541640576,-0.0757138356566,0.0492823496461,-0.00269665638916,0.00390434404835,0.00681385118514,0.0143041014671,0.0185194890946,-0.0660937950015,0.0906874984503,-0.00367694580927,-0.0586569011211,-0.0564646571875,0.0691873729229,-0.0549535751343,-0.0622716806829,0.0447792410851,0.0884472504258,-0.0264831408858,-0.0260992459953,-0.00868420489132,0.107152596116,0.0579106323421,-0.04922407493,0.0514510497451,-0.0908246859908,-0.0839631706476,0.033621031791,-0.0543858706951,-0.0168271511793,-0.0531662069261,-0.0524325035512,0.0817109793425,0.0935263112187,0.013763377443,0.0217635668814,0.0598377026618,-0.0321432873607,0.0141461370513,0.038655500859,0.0874394252896,0.0570928156376,-0.0370564684272,0.0813407152891,-0.00730391778052,0.0398071110249,0.0478858873248,0.0277684703469,0.0229460336268,-0.00118025857955,0.0261827223003,-0.0485037155449,-0.0320917144418,0.02886508964,-0.0422911904752,-0.132963836193,0.0412318855524,0.0516757629812,-0.0915028974414,0.0504890754819,0.0459866784513,0.0556950718164,0.0825947597623,0.0419767014682,-0.00215820712037,-0.0656227096915,0.0127539169043,0.0677666738629,-0.0366256535053,0.0818607658148,-0.00297549646348,0.0105178840458,0.0728587508202,-0.018885858357,-0.026030600071,-0.0502074770629,0.0189901664853,-0.0543662495911,-0.0634534060955,-0.0277869571,0.153231531382,0.0511654764414,-0.000158544979058,0.0190237592906,-0.079002417624,0.0834946408868,-0.100227683783,0.0237590447068,-0.00098176614847,0.0676590576768,-0.0168814100325,0.0203694663942,-0.083822093904,0.142432555556,0.0500100813806,-0.0953957512975,0.0367562025785,-0.00451046368107,0.0686265528202,0.0725549906492,-0.133694201708,-0.0790871530771,-0.00079806643771,0.000669143453706,-0.0219929646701,0.0452990755439,0.027802510187,-0.018361069262,0.034770257771,-0.0401774793863,-0.0181711614132,-0.0957762077451,0.0987758487463,-0.111427135766,0.065370336175,0.0706497654319,0.010409980081,-0.0264954958111,-0.0779934823513,-0.0256155580282,0.0434751659632,-0.0843416973948,0.0494072958827,0.055919714272,0.0356232747436,-0.0440500974655,-0.0970102697611,0.101277701557,-0.0712441504002,-0.0523803420365,-0.0364616252482,-0.0663019195199,-0.0536322742701,-0.125962808728,0.00667468039319,-0.0837630555034,-0.0284616947174,0.00290199904703,-0.00522748101503,-0.018147515133,0.0213839989156,-0.0174256786704,0.0342488773167,0.0266868136823,0.0529858805239,-0.0664055049419,-0.0408934094012,0.0456585474312,0.0321762785316,-0.00294985366054,-0.0150382807478,0.0344894714653,0.010608904995,-0.073981449008,0.00234656990506,-0.0180209297687,0.0537754930556,-0.0493759848177,0.0470248088241,0.00491447653621,-0.0281100552529,0.00706458603963,-0.0529195591807,0.0190348625183,-0.095276966691,-0.0462118424475,0.0694857016206,0.0560251884162,0.0987203940749,0.0725688710809,0.0448713339865,0.0771891698241,0.0429110527039,0.0273227524012,0.0125368814915,-0.00138587912079,-0.0649421066046,-0.0149872340262,0.00316890166141,-0.0215715579689,0.0157608613372,0.0444128811359,-0.0555378720164,-0.0111297769472,-0.0953186973929,0.0657670199871,0.0785621702671,-0.00437765847892,0.108424983919,0.00112736457959,-0.0502872392535,-0.0348157659173,0.0345250330865,0.0443100072443,-0.11686065793,0.0475357249379,0.0148153156042,0.0580114983022,-0.00664178421721,-0.00122044363525,-0.0463004261255,-0.0494168028235,0.0142015237361,-0.0526253655553,0.11542929709,-0.0206694379449,-0.0796815678477,-0.0281516928226,0.107964612544,0.0157389678061,-0.0214821696281,-0.0349970757961,0.0654421821237,-0.0434369966388,-0.0556090474129,-0.0708657354116,-0.0510529130697,0.0744342207909,0.0239274688065,-0.0256920866668,0.0361454598606,0.0256408490241,-0.107385896146,0.0326943509281,0.0209242850542,0.0882947072387,-0.00865860469639,-0.0295426268131,-0.0343242622912,0.0598187409341,-0.0624249204993,0.0245137885213,-0.037129893899,0.0438884831965,-0.010945067741,-0.0396226085722,-0.0308177247643,0.139394938946,0.020853985101,-0.0582251884043,0.0994195640087,-0.0239317063242,0.0272153355181,-0.114189468324,-0.00918825529516,0.060322586447,0.121228426695,0.0251188296825,-0.027560248971,0.15219758451,0.0132523262873,-0.0474294386804
杰克	0.0308696441352,-0.0625049620867,0.0118402522057,-0.0121007990092,-0.051710639149,-0.0352031625807,0.00141446036287,-0.0702163726091,-0.0474622249603,0.0925444215536,-0.0404596626759,0.162231892347,-0.0946751534939,-0.0707461163402,-0.0816002860665,0.0326664894819,0.0364236421883,-0.0431403666735,0.00171420071274,-0.0365114919841,-0.0903877615929,0.0207765325904,0.011178297922,-0.118642650545,0.0419972538948,-0.060459535569,0.00710639590397,0.100800313056,0.00186774868052,-0.00274978787638,0.0288216732442,-0.0113093825057,-0.0138147044927,-0.012887114659,0.0108754029498,-0.0202316064388,0.0440060719848,-0.0845893025398,0.139621794224,-0.0391422025859,-0.00127998413518,-0.0276427622885,-0.0930587127805,-0.0360758826137,0.0434681735933,-0.0188252162188,-0.0458135418594,-0.000927910732571,0.0012081702007,-0.0757302716374,0.0484262406826,-0.0019741547294,0.00525583606213,0.00532686430961,0.013902856037,0.0209125708789,-0.063558742404,0.0904933512211,-0.00202187988907,-0.0603243485093,-0.0592433176935,0.0689852163196,-0.0557905100286,-0.0641969591379,0.0458619892597,0.0886222049594,-0.0259458106011,-0.0262772049755,-0.00895824190229,0.104634068906,0.0563902929425,-0.0506759136915,0.0517851859331,-0.0906138718128,-0.083792515099,0.0340030528605,-0.0530738160014,-0.0163230728358,-0.053011406213,-0.053364764899,0.0794201120734,0.0921734347939,0.0135445147753,0.0235974602401,0.0608163774014,-0.0332902483642,0.0140269557014,0.0375988520682,0.0886248797178,0.0571628548205,-0.0379494577646,0.0802790224552,-0.00749058136716,0.041542366147,0.0469810217619,0.024546418339,0.0233930125833,-0.000209110366995,0.0256095957011,-0.0458869747818,-0.0311586633325,0.0281027071178,-0.0422613807023,-0.131280705333,0.0406429246068,0.0521018467844,-0.0915565639734,0.0501726455986,0.0451957583427,0.0547397322953,0.0836503952742,0.0408796444535,-0.00255900924094,-0.0658046454191,0.012199735269,0.0660001337528,-0.0365605726838,0.0813292339444,-0.00137060077395,0.0112328529358,0.072658829391,-0.0185416247696,-0.0230582430959,-0.0492393895984,0.0175822265446,-0.0523219965398,-0.0657867714763,-0.0283705741167,0.153349354863,0.0510591901839,-0.00105671118945,0.0167121421546,-0.0780000761151,0.0830317214131,-0.100505255163,0.0235416535288,0.000482792616822,0.0660271272063,-0.0170066487044,0.0218909345567,-0.0817276164889,0.141432359815,0.0496097430587,-0.09526874125,0.0358485467732,-0.00349890603684,0.0708132758737,0.0708278045058,-0.133284896612,-0.0795086473227,0.00267090974376,0.00234627258033,-0.0232556983829,0.0435291528702,0.0285210050642,-0.0169164147228,0.0345510467887,-0.0414702668786,-0.0188417639583,-0.0957438349724,0.0987903401256,-0.113773040473,0.0662157461047,0.0706785172224,0.0108222803101,-0.0270797461271,-0.0793620720506,-0.0252363868058,0.0443112701178,-0.0847492590547,0.0520123019814,0.0568995513022,0.0345328561962,-0.0440942794085,-0.0971473604441,0.101645901799,-0.0695900544524,-0.053823005408,-0.0381598249078,-0.0685385391116,-0.0533941537142,-0.123186305165,0.00606843736023,-0.0851790159941,-0.0266592539847,0.00689031835645,-0.00486078020185,-0.0160670913756,0.0211267564446,-0.0166533570737,0.033499468118,0.0263144280761,0.0518018603325,-0.0660186558962,-0.0412749610841,0.0452865809202,0.0340737514198,-0.0050303270109,-0.0170404035598,0.0353355370462,0.0126416813582,-0.0741868987679,0.00430947868153,-0.0185213722289,0.0526879020035,-0.0482287891209,0.0467418320477,0.00484827067703,-0.0286694858223,0.00638802116737,-0.0515393465757,0.0201195664704,-0.09778932482,-0.0459024123847,0.0681814476848,0.0542106963694,0.0974300205708,0.0712909698486,0.0472359396517,0.0752130895853,0.0421241745353,0.0261039249599,0.0139183048159,-0.00122545298655,-0.0649789944291,-0.0152422608808,0.00322879082523,-0.019948810339,0.0116795720533,0.0416552238166,-0.0556692257524,-0.0127907581627,-0.0947390496731,0.0663923993707,0.0782812833786,-0.0025903491769,0.109414674342,0.000195440268726,-0.048880752176,-0.0352426618338,0.0337788499892,0.041820526123,-0.112209908664,0.0430501848459,0.0157161261886,0.0573633387685,-0.00727025512606,-0.00261398917064,-0.0463106445968,-0.0490923970938,0.0109960353002,-0.0534189082682,0.11333912611,-0.0200542565435,-0.0823488533497,-0.0281973201782,0.110836960375,0.0156837590039,-0.0193447582424,-0.0339700058103,0.0666500478983,-0.0417097471654,-0.0549100749195,-0.0702928379178,-0.0524170883,0.0752180889249,0.0240518562496,-0.0279695112258,0.0375212244689,0.0245174877346,-0.109655000269,0.033617131412,0.0241726636887,0.0875497236848,-0.00830173864961,-0.0286001563072,-0.034806676209,0.0619607456028,-0.0645048394799,0.0251439623535,-0.0366584323347,0.0443744696677,-0.0113230533898,-0.0398344397545,-0.0317830741405,0.140293627977,0.0219018440694,-0.0596894137561,0.100422307849,-0.025841968134,0.0275408048183,-0.113351352513,-0.00949734263122,0.0612162053585,0.120756477118,0.0253919363022,-0.0307562891394,0.15318466723,0.0113719310611,-0.0485197342932
说	0.0296962670982,-0.0633888840675,0.0114888185635,-0.0141498493031,-0.0510540939867,-0.034478418529,0.0029754198622,-0.0695021525025,-0.0476700812578,0.0915077552199,-0.0412478335202,0.160032600164,-0.0945989638567,-0.0708406493068,-0.0796552971005,0.0319203175604,0.037163130939,-0.0402563437819,0.00154347752687,-0.0379977785051,-0.0897175818682,0.019590228796,0.0123015772551,-0.118970036507,0.0401232168078,-0.0563915707171,0.00602308427915,0.0996211990714,0.00182526989374,-0.0051017543301,0.0301647186279,-0.00985777005553,-0.0121183553711,-0.011805023998,0.00903493072838,-0.0227312427014,0.0446959584951,-0.0844047665596,0.139409124851,-0.0409719534218,0.000474140048027,-0.0277275983244,-0.0948143973947,-0.0381604991853,0.0422746911645,-0.0187684185803,-0.0456154383719,-3.81952713724e-06,0.00153928797226,-0.0760733932257,0.0488004200161,-0.00175467389636,0.00545813608915,0.0067558856681,0.0147363180295,0.0177439097315,-0.0637306421995,0.0919334068894,-0.00173907284625,-0.0607709139585,-0.0588889159262,0.0694480761886,-0.055263351649,-0.0610773861408,0.0436508394778,0.0887356773019,-0.0251419134438,-0.0260795988142,-0.00909531489015,0.106593392789,0.0557194761932,-0.0504328981042,0.0515460707247,-0.0887619256973,-0.0832623243332,0.0328582599759,-0.0540734045208,-0.0164090637118,-0.0549646802247,-0.0529609434307,0.0819935798645,0.0930737033486,0.0146088236943,0.0228481888771,0.0598469935358,-0.0329192206264,0.0139003721997,0.037142559886,0.0884403735399,0.0586571320891,-0.0390014350414,0.0796399340034,-0.0062901135534,0.0408588722348,0.047003403306,0.0261839274317,0.023756088689,-0.00172074721195,0.0239960551262,-0.0454606637359,-0.0330168753862,0.0289483014494,-0.0421369820833,-0.132504031062,0.0403597168624,0.0514874346554,-0.0897138863802,0.0501416809857,0.0467306748033,0.0556680001318,0.0807386264205,0.0428918935359,-0.0031025649514,-0.0647895410657,0.0130807552487,0.0681855157018,-0.0367316678166,0.0835906788707,-0.00171276926994,0.011260590516,0.0729062855244,-0.0186342336237,-0.0239765569568,-0.0501508973539,0.0174348894507,-0.0558716543019,-0.0637767091393,-0.0269378758967,0.152234405279,0.0519118122756,-0.000769056205172,0.0182850267738,-0.0776544809341,0.0837778523564,-0.100388966501,0.0242888815701,-0.0013054771116,0.0672977939248,-0.0142672862858,0.0211728494614,-0.0844838023186,0.142078250647,0.0510561466217,-0.0944931209087,0.0375788733363,-0.00368415331468,0.0690953284502,0.0724280700088,-0.134120896459,-0.0782019868493,-0.000493513885885,0.000137646246003,-0.0222868788987,0.043497312814,0.0270385425538,-0.0175255089998,0.0339893624187,-0.0401186458766,-0.0180476289243,-0.0961438789964,0.0971946120262,-0.111496046185,0.0674797147512,0.0717294588685,0.00935379415751,-0.0270274560899,-0.0774670913815,-0.0245116502047,0.0424879081547,-0.0853108987212,0.0503205321729,0.0549345314503,0.0352181680501,-0.0441886223853,-0.0986249521375,0.102250352502,-0.0687641203403,-0.0530336387455,-0.0371058471501,-0.0673385635018,-0.0526910126209,-0.126284375787,0.00509483693168,-0.0828398987651,-0.0273838769644,0.00381315452978,-0.00621915236115,-0.0171560384333,0.0197640638798,-0.0179317370057,0.0343849547207,0.0256856866181,0.0542213730514,-0.0669009611011,-0.0429558679461,0.0450423955917,0.0310632940382,-0.00360300461762,-0.0153888426721,0.035902634263,0.0102738896385,-0.0741391703486,0.0034916237928,-0.0179632585496,0.0532586909831,-0.0493828579783,0.0477823913097,0.00586538342759,-0.026846203953,0.00605985242873,-0.0512425601482,0.0184785835445,-0.0965274944901,-0.0450861677527,0.0691392719746,0.056340675801,0.097600184381,0.0728546753526,0.0459212958813,0.0767385140061,0.0431694537401,0.0267945453525,0.0127082839608,-0.00190016045235,-0.0650249123573,-0.0141317881644,0.00167135440279,-0.0231510531157,0.0142882606015,0.0445219241083,-0.0545665174723,-0.0116039877757,-0.0952373892069,0.0661118254066,0.0778027325869,-0.00394832203165,0.108040347695,0.00212084874511,-0.0511075891554,-0.0339939408004,0.0356390289962,0.042597129941,-0.11623377353,0.0473062619567,0.0140436952934,0.0590516217053,-0.00712186098099,-0.00177883484866,-0.0445009730756,-0.0488300174475,0.0137263005599,-0.0533895976841,0.115830771625,-0.0230251811445,-0.0790552571416,-0.0292776823044,0.109659582376,0.0153566468507,-0.0212929844856,-0.0340798310935,0.0651852935553,-0.04545436427,-0.0557497367263,-0.0704693570733,-0.0518577434123,0.0736733525991,0.0238847080618,-0.0262712966651,0.036907106638,0.0244467463344,-0.107734106481,0.032798524946,0.0207053292543,0.0895166248083,-0.00810058135539,-0.0294654890895,-0.0354308262467,0.062711507082,-0.064808793366,0.0246480014175,-0.0357561334968,0.0450065657496,-0.0111860474572,-0.0394929721951,-0.030061300844,0.139651685953,0.0202346984297,-0.0587585493922,0.0998523384333,-0.0233828034252,0.0275628659874,-0.1130611673,-0.0102311363444,0.0623891912401,0.121688470244,0.0257433261722,-0.0276930853724,0.151711940765,0.0126832649112,-0.0492713674903
他们	0.0304656978697,-0.0637044981122,0.0103239733726,-0.0128067750484,-0.0508284829557,-0.0348151363432,0.00237597874366,-0.0693595185876,-0.0463877022266,0.0920353904366,-0.0396578721702,0.161013588309,-0.0967736765742,-0.0710174366832,-0.0797495767474,0.0327422171831,0.0365654863417,-0.0421715602279,0.000517556793056,-0.0369931645691,-0.0893497020006,0.0190857648849,0.0142974406481,-0.119445733726,0.0404945909977,-0.0567847602069,0.00810996629298,0.0996814444661,0.00276522664353,-0.00481164734811,0.0295379254967,-0.00913205556571,-0.0119389891624,-0.0116026466712,0.0103519614786,-0.0216067414731,0.0444680638611,-0.0854828134179,0.139443472028,-0.038313858211,-0.00219387421384,-0.0272455159575,-0.0931099504232,-0.0383253954351,0.0409280769527,-0.0190606769174,-0.0445380881429,-0.000782224757131,0.000508914235979,-0.0758127197623,0.0476925745606,-0.00178440695163,0.00464498391375,0.00633593229577,0.0126778157428,0.0190210472792,-0.0651735812426,0.0909088477492,-0.00420747557655,-0.0604084767401,-0.0585871376097,0.068031527102,-0.0555479563773,-0.0638579502702,0.0440569184721,0.0894732102752,-0.0257946830243,-0.0256015490741,-0.00792149826884,0.10610447824,0.0558093003929,-0.0498354323208,0.0525608956814,-0.0882777869701,-0.0843124166131,0.0328553467989,-0.0541110932827,-0.0152319809422,-0.0537377074361,-0.0514184683561,0.0796442851424,0.0921972990036,0.0147220287472,0.0208698883653,0.0613297447562,-0.0332705825567,0.0153858745471,0.0385175980628,0.0875208005309,0.0581811480224,-0.0389590859413,0.0814816728234,-0.00666327262297,0.0415659733117,0.0471877157688,0.0265853274614,0.0223095193505,-0.000698590476532,0.0257760044187,-0.0483675822616,-0.0309571288526,0.0289763696492,-0.0403612069786,-0.131630256772,0.0416243262589,0.0515786446631,-0.0921498760581,0.0487603321671,0.0459078848362,0.0557238459587,0.0813957974315,0.0425167419016,-0.00223556649871,-0.0647222027183,0.0126681532711,0.0675599947572,-0.0348455160856,0.0821600183845,-0.00129632931203,0.00998002756387,0.0731388702989,-0.0181603897363,-0.0248049758375,-0.0483581721783,0.0173714458942,-0.0547371581197,-0.063091352582,-0.0294031426311,0.153002873063,0.0534446425736,-0.000654730654787,0.0181596204638,-0.0796083882451,0.0830906257033,-0.0990394502878,0.0240889899433,-0.000553555611987,0.0667367130518,-0.0159235168248,0.0216186586767,-0.0840362533927,0.141823723912,0.0506725385785,-0.0960443094373,0.0376980341971,-0.00387839064933,0.0691086575389,0.0723841935396,-0.134528800845,-0.0772833004594,0.000793674436864,-3.62839709851e-05,-0.0234764181077,0.04546867311,0.028432302177,-0.0174834169447,0.0354954898357,-0.0398315191269,-0.0188598223031,-0.094674192369,0.0990309864283,-0.112634561956,0.066563770175,0.0712150409818,0.00918881036341,-0.0267844107002,-0.0770002156496,-0.0256153661758,0.0427704416215,-0.0854071602225,0.049966532737,0.0564737021923,0.0344938337803,-0.0441418141127,-0.0975529998541,0.101649709046,-0.0715870782733,-0.0523156039417,-0.0375057160854,-0.0662844255567,-0.0533921942115,-0.126534849405,0.00526161119342,-0.0832369402051,-0.0278968308121,0.00375237315893,-0.00325455656275,-0.017274832353,0.0213268958032,-0.0160980075598,0.0338380932808,0.0260318927467,0.0533189699054,-0.0660873055458,-0.042382735759,0.0444099828601,0.0315431430936,-0.00294975098222,-0.0160335805267,0.0358339883387,0.0106430668384,-0.0725969821215,0.00397465983406,-0.0176089871675,0.0540538951755,-0.049435775727,0.0486268550158,0.00538469757885,-0.0276438333094,0.00835177022964,-0.0504014603794,0.0179381333292,-0.0951633527875,-0.0467937998474,0.0704670101404,0.0544429644942,0.0973081663251,0.0719402208924,0.046695087105,0.0772768184543,0.0430084504187,0.0260534435511,0.0125069823116,-0.00227862945758,-0.0647937133908,-0.0139006515965,0.00352902407758,-0.0214768983424,0.0138699859381,0.0420863367617,-0.0552666373551,-0.0112575730309,-0.0950487777591,0.065868884325,0.078692831099,-0.00294541288167,0.110275015235,7.73805222707e-05,-0.0486107505858,-0.0348676852882,0.0347874127328,0.0438763983548,-0.118305571377,0.0485282875597,0.0142928734422,0.0588536076248,-0.00717823812738,-0.0030386573635,-0.0452146828175,-0.0479188226163,0.014027572237,-0.0524874553084,0.115665867925,-0.0223211422563,-0.0789641365409,-0.0280575249344,0.108667209744,0.0157327502966,-0.0188691280782,-0.0330945327878,0.0659095495939,-0.0448756441474,-0.0565843135118,-0.0709944963455,-0.0521523617208,0.0754277035594,0.0239695552737,-0.0282215010375,0.0357127636671,0.0257454253733,-0.106425836682,0.0331065021455,0.0225837994367,0.0880122333765,-0.00864981301129,-0.0297065414488,-0.0332100205123,0.0604029595852,-0.0637485235929,0.0245367195457,-0.0371436774731,0.0454791560769,-0.0101624205709,-0.0396585203707,-0.0313750877976,0.140656739473,0.0222535859793,-0.0585508234799,0.0997094362974,-0.0218392834067,0.0274018421769,-0.11333771795,-0.0103490492329,0.0603152476251,0.120213493705,0.0252228658646,-0.0279493983835,0.152954146266,0.0137553717941,-0.049271710217
